0.00080703
0.00597241
-0.02482832
-0.03103777
0.03526628
0.00107168
-0.01550532
-0.03379237
0.01761730
-0.01725975
-0.01300134
0.00858557
0.01442011
0.03038110
-0.03477893
-0.03438064
0.01074251
-0.00593378
0.00852282
-0.01423514
-0.03012992
-0.01278243
0.01931141
0.00001739
-0.02686006
0.01621568
0.03165222
-0.00333983
-0.01475520
-0.01548607
-0.01181216
0.02176611
0.02620062
-0.00092619
0.02644263
0.02575261
-0.03556880
-0.02477697
0.02767453
0.01776279
-0.00632243
-0.02104110
-0.00936593
-0.02761661
-0.02637428
-0.00843057
-0.02628297
0.02008251
0.02134993
0.01795414
-0.02986691
0.02693430
-0.03054258
0.02515879
-0.00876260
-0.02168836
0.00566018
-0.01282466
0.01068610
0.02661927
0.00740355
0.03458823
0.01267110
-0.00211012
-0.00205225
0.00339944
-0.01207179
-0.00190676
0.01433676
-0.02011155
-0.01985826
-0.02769996
-0.00543836
0.00649009
-0.01960228
0.00390164
0.03377381
-0.01017096
-0.01173013
0.01940945
-0.02793111
-0.00588276
0.01062947
-0.02275940
-0.01643826
-0.03384742
-0.00873347
0.02493621
-0.01095779
-0.03376166
0.01584119
0.03216004
-0.03488772
-0.00720200
-0.00566436
-0.00122568
0.03191173
0.01797814
0.03258184
0.01053421
0.03358087
-0.02299071
0.01854854
-0.00757177
0.01921367
0.03466054
0.03204416
0.01727319
-0.01122470
-0.01540026
0.00096836
-0.00344153
0.01443127
-0.02411646
0.00951336
0.03370730
-0.02224959
-0.03493440
0.02292922
0.00250690
-0.03298177
0.00305613
-0.00104735
-0.03215520
0.03156842
0.02900258
0.00233340
0.02776587
0.01126643
-0.00079904
0.00258579
0.00913302
0.01192454
-0.01457996
-0.03415304
-0.00457608
-0.01563370
0.03360540
-0.02301717
0.00885588
-0.01750914
0.01366548
-0.03029993
0.03263641
0.02526330
0.01492772
0.03062942
-0.03270057
0.01570760
0.01784436
0.00552061
0.01844012
-0.01481380
-0.03124102
0.02199920
-0.01895967
0.03347585
-0.01138168
-0.02690809
0.00902799
0.02353356
0.01139199
-0.01755328
-0.00025618
0.03252632
-0.01599203
0.03088203
-0.01882167
-0.01810092
-0.02784943
0.02574850
0.00010423
0.02153033
0.03116286
-0.00297365
0.01107935
0.01037629
-0.00805852
0.01409306
-0.00963039
-0.02592844
-0.01610061
-0.02690456
-0.00502796
-0.01162735
0.03080893
0.01172666
-0.01386579
-0.01628704
0.02053286
0.03087649
-0.02846776
-0.00378944
-0.02239108
0.00699034
-0.00697741
-0.00266882
0.00215808
0.00991521
0.01494455
0.01002293
-0.00005058
-0.02066551
-0.00416102
-0.00460200
0.01207512
-0.02879596
-0.02994000
-0.03169768
0.02101139
-0.00385610
-0.02191184
-0.03080351
0.00495362
0.00877449
-0.00671657
0.00004826
-0.01521314
0.01513192
0.01947550
-0.03039456
0.01029413
0.02672203
0.00153028
0.02361734
-0.00200192
0.03026716
-0.01476577
-0.03555813
0.00446808
-0.03553551
0.01017909
-0.03129678
-0.02048674
-0.02969621
-0.00018450
0.02730267
-0.02277789
0.00558979
0.03131927
0.03394779
-0.03398060
-0.02630685
-0.03257001
0.00668730
0.01818192
-0.00357230
-0.02897872
-0.03274550
-0.02415466
0.02621107
-0.02742578
0.02185375
0.01721881
0.00981879
0.00975680
-0.02049739
0.00437167
0.03070531
-0.02034123
-0.02687454
0.03088408
0.02555215
-0.02245704
-0.02531694
0.03157022
0.01307275
-0.03372856
-0.02692195
-0.01705175
0.03330500
-0.02868845
-0.01531807
-0.02871613
-0.02554418
0.02708352
0.02518008
0.00659781
0.03381909
0.02814887
0.01815743
0.02431587
-0.03499120
0.00429689
0.00582040
0.01054188
-0.02166060
0.02103729
-0.02080074
-0.02666958
-0.03501823
-0.01196099
-0.03149978
0.02624821
0.00129625
-0.02110243
0.02210414
-0.02134528
-0.01911670
0.03089648
-0.00268275
-0.02152598
-0.03350626
0.01771347
-0.01452783
-0.02333615
0.00908271
-0.02506203
0.01897594
0.00718751
-0.03262745
0.00141908
-0.00421090
-0.03190437
-0.02999831
-0.03410479
0.01435180
-0.01594463
0.02264679
0.02926534
-0.00689992
0.02334284
-0.01840994
-0.00268541
0.01387676
0.01860060
0.01192644
0.00026662
0.03296961
0.02852403
-0.00455119
-0.00542743
-0.02871624
-0.00234316
-0.02342824
-0.00752978
0.01003498
0.02136875
0.00312247
-0.00670337
-0.00715802
0.00620930
0.03043000
0.02434536
0.01001922
-0.03528260
0.02595486
-0.01134327
-0.01551294
0.01288736
-0.01779221
0.01330142
0.00051591
-0.00048786
-0.02509828
-0.02132161
-0.01760155
0.02254245
0.01465930
-0.02034622
0.01535219
-0.02560618
0.00994063
0.02235023
0.00776495
0.02222668
-0.02089383
-0.01791436
0.00788115
0.01794292
0.01109656
-0.03499116
-0.01156207
0.00581228
0.02506849
0.03417143
0.00624396
0.01530906
-0.01288612
0.02644531
-0.00751787
0.00503595
0.00403244
0.02871233
-0.03116620
0.01464845
-0.02832356
-0.01305346
0.00147662
0.02205002
0.00231460
-0.01888548
0.03215813
-0.02345905
-0.03224953
0.00420879
0.03448192
-0.01742908
0.02200872
0.00664878
-0.03520044
-0.00260900
0.00737191
-0.01104823
-0.03251101
-0.00327389
-0.01259108
0.00944724
-0.02367912
0.01023708
0.00017826
0.00451730
-0.02044125
-0.03150358
-0.00248465
-0.01589316
0.01885916
0.00490607
0.00676767
-0.01537851
-0.00875820
-0.02663202
0.00145030
-0.01231435
-0.01437678
0.00491506
0.02760873
-0.01560914
0.02320027
0.01390316
0.02675392
0.02371411
-0.02442013
-0.00158845
-0.02304841
-0.02121686
0.03085194
0.00007480
0.02394466
-0.02854146
-0.02540240
-0.01159136
0.01169013
-0.01012937
-0.00738066
-0.02650881
0.00969175
-0.02423579
0.01411154
-0.01925486
-0.00390002
-0.03036094
-0.01017259
0.03326457
-0.00696101
0.01116491
0.00246534
-0.01506657
0.03127006
-0.01004868
0.03455088
0.02230969
-0.02204886
-0.02558354
-0.01499305
-0.00938298
-0.01108611
-0.01985539
0.02640611
-0.02285573
-0.01268256
-0.03471058
0.00126719
0.03472185
-0.00912566
0.02960082
-0.02750125
-0.03514819
-0.03034926
0.02232457
-0.01868877
0.00146501
0.02767792
0.00685292
-0.00098471
-0.01499738
-0.01769645
-0.03423365
0.00565033
-0.02214068
-0.00856805
0.00448693
-0.03554527
0.00509738
0.01461767
-0.01482404
0.03142869
-0.03218272
0.00103486
0.02212051
-0.01932416
0.02406658
0.02312422
0.01765732
0.02307414
-0.02171573
0.01154385
0.03128718
-0.02114964
0.01690887
0.01789746
-0.00412412
-0.01734040
0.00986109
-0.03298549
0.01738918
0.03057800
-0.01496766
0.01886981
0.00051405
-0.00139406
-0.02541252
-0.03071332
-0.00122505
0.01539915
0.01961864
0.01966520
0.01111355
0.02315021
-0.01501422
-0.00248022
-0.03188824
-0.02666193
-0.01507028
0.02148336
0.03212650
-0.00107173
-0.00268708
0.02769939
0.01349292
-0.02149249
0.00988257
-0.02634549
-0.00311860
-0.01597062
-0.02361670
-0.02144371
-0.02110691
-0.00287007
0.03314039
0.01512142
0.03145016
-0.02798642
0.02012239
-0.00548917
0.02312701
0.00402675
-0.02153825
-0.00147372
-0.00853733
-0.00083819
0.03176034
-0.00471128
0.00821417
-0.01902423
-0.01894220
0.00462638
0.01561833
0.01408501
-0.00338851
-0.00660303
0.02830681
-0.02922023
0.00276576
-0.01052608
-0.00947656
0.01486335
0.00374450
0.00513081
-0.02372100
0.00117060
-0.01546205
-0.02798513
0.00889847
-0.03105394
0.00223998
-0.00368881
0.00868709
0.01641601
0.03055176
-0.03556452
-0.02013646
0.02659782
-0.00456151
0.02379199
-0.02814070
0.01221057
-0.00729591
0.02319192
-0.00941870
0.02502986
-0.01912540
-0.01682618
0.03152392
0.01935465
0.00836203
-0.01366692
-0.00149628
-0.02360776
0.02717818
0.01049700
0.01327713
-0.02399816
0.01822616
-0.01353869
-0.01933782
-0.01524815
0.01848680
0.02506356
-0.03454642
0.01332427
0.02521333
-0.01896860
0.00420780
-0.01506247
-0.03089090
0.01178139
0.03286239
-0.00247252
-0.00074098
-0.01227060
-0.01315695
0.01584791
0.00661751
-0.01734731
-0.00051172
-0.02073475
0.00470005
0.03370629
-0.00862822
-0.00383606
0.00848900
-0.03106538
0.00788007
-0.00899912
-0.00888978
0.02425654
0.01146701
-0.02611727
0.01360581
0.01263488
0.02292129
0.00310485
0.02938056
-0.00858520
0.02375667
0.03420395
-0.03251810
0.02090478
-0.00398286
0.00245521
-0.02708011
0.01857448
-0.01741116
0.01525168
-0.03448711
0.01779141
0.03023122
0.00592723
0.01578341
-0.01411129
-0.03362312
-0.01144187
-0.00946238
0.00997124
0.01527329
0.01736213
-0.00148651
-0.00897398
0.02695915
-0.02359498
-0.03205339
0.01416615
0.01522416
0.03304146
-0.03013333
0.00326654
0.03153113
-0.02693715
-0.01154297
-0.00816601
0.01123235
-0.00290879
-0.02530582
0.02953548
-0.02337139
-0.02407864
0.01161260
-0.02885446
0.01756287
-0.00831828
-0.00725146
0.01965404
0.01595414
0.01900044
-0.00608901
-0.00448686
0.00064829
0.02813877
0.02225344
-0.00810685
-0.03117050
0.02591434
-0.02965498
0.01976795
0.02324151
-0.02407403
-0.01267979
0.01905835
-0.01529689
0.01149153
-0.02482194
0.03164975
-0.02713155
-0.01441347
0.02547094
-0.01478866
-0.00277783
0.00136926
-0.00792883
-0.02092925
0.02876526
0.02053399
0.03443908
0.00900511
0.00382015
-0.00736421
-0.03119603
-0.03124585
-0.01493973
0.02677169
-0.00363841
-0.01039594
0.01697174
0.00242090
-0.02634228
0.00449897
0.01406115
-0.00330778
-0.01215696
0.03447855
-0.02753054
-0.00126462
0.03041402
-0.01894781
0.02003619
0.02017067
0.00197782
-0.01845593
-0.01417436
0.02976328
-0.00367089
-0.02112338
0.01458299
-0.00494609
0.02359602
-0.01731114
0.02340398
0.02811428
-0.01284270
-0.02725004
0.01917168
0.01923317
-0.00193169
0.00042914
-0.01406021
0.00744032
-0.03078617
-0.03571334
-0.03158175
-0.00722885
0.03447949
-0.02339801
0.02722081
0.02917922
-0.00663153
0.01154272
0.01363561
0.03106058
0.02880108
0.03517554
0.02510958
-0.01058409
-0.02166212
0.00397828
0.02018410
-0.03378038
0.02238142
0.00787379
0.03004818
-0.02617557
0.01633804
0.01350558
0.02877189
-0.02130793
-0.02177957
-0.02100261
0.02184667
-0.01685145
-0.02100167
0.02597921
0.01163398
-0.02223646
-0.03313309
0.00314051
-0.02877152
-0.00405033
-0.02103106
0.02057838
-0.00870403
-0.02794426
0.02003963
-0.01930874
-0.00281407
0.03409180
0.02038383
-0.01834426
-0.03540287
0.00705096
0.02524382
0.03035960
0.01658968
0.00586758
0.00815089
0.00964728
0.02027393
0.02208561
0.02435896
0.00640631
-0.03048013
-0.03235699
-0.00332877
0.01686814
-0.01887917
-0.00074757
-0.01570564
-0.01193641
0.03091639
-0.00102241
-0.02707232
-0.01350193
0.00674761
0.02868160
0.00290361
-0.03178074
0.02705911
-0.01242685
-0.01441072
0.02737053
0.03033840
-0.02488118
0.02201584
0.01121379
0.01670068
-0.00554755
-0.01485321
0.00126032
-0.01917623
-0.02620854
-0.02804765
-0.01394207
-0.02285124
0.00433787
-0.03278822
-0.00601613
-0.03212399
-0.01277957
0.01776175
0.03450669
0.02191230
0.02640372
-0.01470953
-0.00705437
0.01937104
0.02390836
-0.00312083
0.01071587
-0.02423277
0.01818274
0.00237211
-0.02960866
0.02901584
-0.01132633
0.01731942
0.01000223
0.01884041
-0.03324808
-0.02445173
0.03537847
-0.02374233
-0.01678510
-0.01427789
-0.01087929
0.02326705
-0.01135182
0.01881887
0.02685735
0.01158289
0.00086634
0.02564975
-0.00221910
-0.00844423
-0.02477406
0.02644081
-0.02478747
0.03484858
-0.01239430
0.02164268
-0.02509847
-0.02992585
-0.01169949
-0.01899285
0.03480427
0.01268847
0.03404085
0.00909222
-0.00418541
-0.03492151
0.02035477
-0.00452123
-0.02294956
-0.03214461
0.01691517
0.00188543
0.02683673
-0.03015094
-0.01500998
0.01797980
0.01714623
0.02157064
0.00791526
-0.02078716
-0.02258788
0.01885549
-0.03006063
-0.01166106
0.01798978
-0.00674065
-0.02573267
0.02860560
-0.00095221
-0.00171788
-0.02610154
-0.00186222
-0.02474370
-0.02777497
-0.02848429
0.00678518
-0.02698219
0.02758477
-0.03345034
-0.01421747
0.03115444
0.01917911
0.02338225
0.02227688
0.02474245
-0.02734202
0.00454239
0.00617439
0.02994291
-0.02325663
0.02110152
-0.02835926
0.03131314
0.02675518
-0.00430603
0.01358864
-0.01569975
0.00567558
0.00647995
0.01906232
-0.03175658
0.01609270
-0.01851419
-0.02078600
0.02403202
-0.01128419
0.02171346
0.03276411
-0.01941371
0.02397741
-0.01716764
-0.02397356
0.00744223
-0.02949968
0.03401761
-0.00352960
-0.02112741
0.00284571
-0.03306950
-0.02689879
0.01530337
0.02374631
-0.01954376
0.01090222
0.01478721
0.01186449
-0.01122343
0.03480174
-0.01817422
0.03097081
0.01814978
-0.01421651
0.01134923
0.03534987
0.00071178
-0.00033304
-0.01164861
-0.01328905
-0.00328322
0.00465196
-0.02502592
0.01526342
0.01639269
0.01813060
0.02147803
0.01469601
-0.02111329
-0.03536367
-0.01817257
-0.01846850
-0.02654817
0.03284509
-0.03043647
-0.01037765
0.00803302
0.02006502
-0.03422744
0.03252388
0.01915247
-0.01668737
0.02778041
0.00158796
0.00481040
0.00341535
0.00122355
-0.03019211
-0.03263198
0.02528922
-0.00776687
-0.00020091
-0.00577310
0.00292149
-0.02065178
-0.02509469
-0.01466220
-0.03488803
0.02531560
-0.00006120
-0.03453741
-0.02857125
0.01718458
-0.02537130
-0.03144045
0.02246239
-0.00003466
0.01230686
0.00681312
0.00145218
0.00911646
-0.00974869
0.02047910
0.00118258
0.02755355
-0.01042479
-0.03111636
-0.00693719
-0.00490261
-0.02803406
-0.01736225
0.02304480
0.00747931
0.01257894
-0.00974799
0.02254182
0.02319853
0.01130409
0.02336808
0.01279985
-0.02447140
0.02454495
0.01994289
0.02842747
0.03488794
0.02421672
0.01517558
-0.00086101
0.00080930
-0.01372559
-0.03512311
-0.02578853
0.01224000
0.02107027
0.01110833
0.00407927
-0.02506881
0.01570625
0.03285637
0.00574286
0.02338647
-0.02022017
-0.00692662
-0.00484850
0.02807306
0.01903967
-0.01802096
0.01555731
-0.00537052
-0.03036717
-0.00735713
0.00587237
0.02989207
-0.02312853
-0.00141445
0.02906572
-0.03462609
-0.02195316
-0.00750958
0.00189749
0.00003554
-0.00691840
0.01182324
-0.02343874
-0.02156242
-0.01278272
0.01635481
-0.01091694
-0.03279075
0.01349690
0.03054021
0.02631001
0.02899102
-0.01210070
-0.01425278
0.02134979
-0.02877531
0.00344054
0.00119281
0.00156846
0.00878766
0.02954997
-0.02827346
0.00296544
-0.02929284
0.00602638
-0.00368313
-0.02820465
0.01978751
0.02452158
0.00940712
-0.01589124
-0.01811111
-0.01448392
-0.00361570
-0.00395924
0.00844765
-0.02297517
0.02083811
0.01137118
0.02623601
0.01566403
0.00196690
0.01951275
-0.03215095
0.02342841
0.00514825
-0.02521197
-0.00884533
-0.02937322
0.01207077
0.03565661
-0.03553754
0.01951159
0.00290777
-0.02911610
-0.01017631
0.03493893
-0.02160646
-0.02610309
0.02374622
0.02351495
-0.00628005
-0.03007917
-0.02668326
0.02581854
0.00167588
0.01747868
-0.03287091
-0.01320030
-0.00686443
0.02907939
-0.03325055
0.03081676
0.01287785
-0.02968721
0.01853088
-0.01768819
-0.01918490
-0.02602873
-0.01134712
0.02860016
-0.02608641
-0.01117037
0.01239747
0.01253565
-0.00457218
-0.03349314
0.01176029
0.00953564
-0.02388194
-0.00020778
-0.00266370
0.00555229
0.00542734
0.00636733
-0.00434345
-0.02861107
-0.01186828
-0.00150007
-0.00609709
0.01698158
-0.00813497
-0.00363335
0.01208406
-0.03097140
0.00239372
-0.00509934
-0.01294530
0.01892311
0.00458621
0.01142186
0.01180898
0.01421409
-0.03546280
-0.01150784
-0.00896455
-0.00432070
-0.00928669
-0.03291855
-0.03049934
0.00254565
0.00258796
0.00255125
-0.02761634
-0.02769899
-0.02679571
0.00375450
-0.02059577
-0.00294970
-0.03345986
0.00902143
-0.02168240
-0.00588054
-0.03032621
0.02611594
-0.00113766
0.00778180
-0.01469768
0.02163132
-0.00900938
0.02560281
-0.00266111
-0.03291469
0.00410262
-0.00240962
-0.00870825
0.03085235
0.02898397
0.01771935
0.03364809
0.03419892
-0.01544929
0.00052177
0.00103588
-0.00735134
0.00853707
0.00995446
0.03211744
0.02365558
-0.02870952
0.03437186
-0.00303727
-0.01467764
-0.00722297
0.00235080
-0.02427598
0.02735365
-0.02558169
-0.00325938
0.01327069
0.00112321
-0.01337085
-0.02510470
0.00392281
0.02644605
0.00819996
0.03092885
0.02158412
0.00146965
0.01293391
0.01951793
-0.00004572
0.03319890
-0.01567459
-0.03472413
-0.00986673
0.02857677
0.01094461
-0.01346358
0.01651806
0.01794938
-0.01480600
-0.02223350
-0.03244255
0.01368531
0.01583159
-0.02100424
0.00532468
0.02596419
0.01145066
-0.01711892
-0.00862689
0.03379410
-0.00650933
0.03101021
0.02452586
-0.03402366
0.02622477
0.01039570
0.00316028
0.00344439
-0.00580066
-0.03259973
0.00092901
0.01423904
-0.03160957
0.02677656
0.00710152
0.01504933
-0.02240130
-0.01209470
-0.00271558
-0.00149301
0.00138608
0.00055615
-0.02352199
-0.01849661
0.01526619
0.01751698
-0.02824671
-0.00899743
-0.03531622
-0.00115931
-0.01091761
-0.00611127
-0.00586339
-0.02210604
-0.00442064
-0.01535291
0.02400395
0.03445392
0.02380577
-0.01751100
-0.03386009
-0.01097951
0.03244232
-0.02975538
-0.01991723
0.00382956
0.02100823
-0.00660424
0.02744914
-0.01742164
0.02761703
-0.00687907
0.01884880
-0.03161924
0.01033861
-0.00159930
0.02161202
0.01780618
0.02511756
0.02201009
-0.01906742
-0.02151434
-0.01981546
0.01078348
-0.00790609
0.01147818
0.03114485
-0.01961643
0.01021782
0.01923634
-0.00141314
0.01207201
-0.02745746
-0.00468510
0.01803091
-0.01166040
0.03485874
0.00332486
0.01744964
0.02659359
0.02161750
0.00935238
-0.01599976
0.00475201
0.01344742
0.03005313
-0.03256157
-0.00065484
0.01214502
0.02827028
-0.01435904
0.02879189
-0.02895834
0.00153979
0.00386108
-0.00115014
-0.02269632
-0.00070835
0.01494772
0.02323579
-0.01718630
-0.02217971
-0.00040649
-0.00892947
0.00884947
-0.01808986
0.01512441
0.00799393
0.02094928
-0.00314024
-0.00112677
0.00685250
-0.02950215
0.01858775
-0.02410978
0.01965956
0.01292659
-0.02095707
-0.01670957
-0.01064267
-0.02840108
0.00464568
-0.01756507
-0.02164513
-0.02952882
0.02201029
0.01291901
-0.01651085
-0.01441235
-0.00784756
-0.02898935
0.00411564
0.00568701
0.00631846
0.03090045
-0.02117780
0.02394288
0.01031057
0.02253041
0.00917788
-0.02854396
-0.01431065
-0.01968391
-0.02233182
-0.03143718
-0.00807941
0.03304202
0.01720369
0.00667781
-0.01938183
-0.02915326
0.01399102
0.02097814
-0.01100405
0.02806017
0.02716360
-0.02470804
0.00526489
-0.02506153
-0.00340611
0.03313161
-0.01833659
-0.03500476
0.00310434
0.02369615
0.03160998
0.01764082
0.01192475
0.00620626
0.00445695
-0.01461166
0.01337659
0.02586058
0.00141872
0.02675905
0.03013768
0.02905360
0.02408679
0.01162709
0.00001712
-0.03100932
0.01818811
-0.02170614
0.02568310
-0.02853022
-0.02936025
0.01713242
-0.01752398
0.01161893
0.02778517
0.01478420
0.00903625
-0.02626571
0.01549373
-0.02357369
0.03314473
0.01138942
0.02978142
0.00935519
-0.01811860
-0.00147592
0.03045782
0.30974519
0.34648654
0.05868047
0.29513057
0.33728501
0.33319765
-0.00115658
-0.00963024
0.28711183
-0.11015891
0.43216706
0.25040658
0.28946759
0.07241587
-0.01669031
-0.04719959
0.04994056
0.37270441
-0.19359642
0.31769849
0.03855873
0.09865514
0.18311011
0.11441032
-0.02385872
0.13101059
0.45660035
0.33738785
0.34859594
0.41204416
0.03533329
-0.15007271
0.32732780
-0.00452218
-0.01275777
0.00133449
0.00325685
0.02446564
0.08198701
0.37335556
0.01017958
0.15236385
-0.06017918
0.11996584
0.24183244
0.47272864
-0.03959522
0.31991969
0.65352499
0.39610166
0.69842823
0.02806050
0.30901016
0.43069659
0.15854712
0.04953292
0.28545074
-0.05383253
-0.26604869
0.30986981
0.36997306
0.23297299
-0.02204537
0.45554379
0.07054113
0.20086484
0.54516666
0.08802447
0.40466794
0.05550649
0.23240012
-0.19505604
-0.10299511
0.03523281
0.06441872
0.51406443
0.01022467
0.06169614
0.20085375
0.03339988
-0.01025725
0.17244790
-0.04001880
0.38106270
0.40774519
0.18919231
-0.03490316
-0.14101832
0.22225769
0.11192944
0.27256323
0.39241764
0.28942139
0.31552779
0.44103515
0.00676068
0.15972884
0.51540736
0.08818447
0.07530778
0.15367113
0.28484481
0.09905912
-0.06463661
0.03959677
0.23483760
0.03174273
0.36028090
0.36565245
0.01147897
0.02380876
0.42134383
-0.02652177
-0.27171765
0.37554815
0.36001761
0.64536810
0.55661406
0.05666655
0.13821417
0.04944979
-0.01916422
0.05102740
0.02423083
-0.08564936
-0.01775586
-0.03164337
-0.02303212
0.78642442
1.01768207
0.19879690
0.63493170
0.81704961
0.88480224
-0.04134914
-0.03506498
0.71084776
-0.22295084
1.01769244
0.62104446
0.57068703
0.25946846
0.07313524
0.14285695
0.21351886
0.91692949
-0.37119006
0.79837284
0.17030718
0.38866538
0.60827446
0.33392939
0.08332362
0.43197865
0.98746242
0.81374849
1.05226986
0.97734813
0.20905276
-0.30466284
0.88966939
0.06468241
0.04678745
-0.06240934
-0.02385786
0.03704141
0.31055757
0.92376886
0.08458102
0.34188767
-0.08500453
0.45977204
0.54164756
0.97075823
-0.01088300
0.97956266
1.46943803
1.07438517
1.58529019
0.07391411
0.75375325
0.99882198
0.36986990
0.21374582
0.96420439
0.14040469
-0.54005921
0.78870181
0.95019133
0.61575545
0.07496901
1.14169945
0.18222768
0.58577908
1.10387468
0.14605025
0.84871044
0.33624281
0.57810383
-0.46437483
-0.25282113
-0.01861536
0.19351863
1.01447636
-0.02935977
0.10071963
0.49122171
0.10146913
0.05033637
0.57543473
0.00197492
1.11986673
0.96607110
0.41683707
-0.00169787
-0.26800427
0.52893454
0.32105757
0.63516848
1.01595756
0.71901639
0.73362393
1.18547092
0.10988183
0.40980162
1.24857098
0.25931712
0.22231340
0.40894004
0.58748479
0.33522382
-0.09291838
0.03840799
0.62992450
0.04587633
0.97762076
0.97574533
0.12386570
0.01623793
1.15424346
0.07117850
-0.63970409
0.98492896
0.86351079
1.48014721
1.32677780
0.16513715
0.30577099
0.23094269
0.04627980
0.19783723
0.07084281
-0.17495877
-0.06634205
0.03835675
0.09069475
0.17500500
0.20100022
0.06213049
0.03436352
0.04043801
0.12884786
-0.02748433
0.01867997
0.15661114
0.10586428
0.15922564
-0.01634335
-0.06237840
0.09608787
-0.00363564
0.23203969
-0.00021010
0.19478294
0.02753009
0.19565861
0.07740591
0.21678545
0.26614566
0.10672545
0.11481225
0.07765878
-0.00379134
0.15358899
0.25529404
0.18348459
0.19181690
0.00342180
0.19356133
0.02917222
0.01581619
-0.02746076
-0.04113428
0.01297567
0.13423881
0.16518879
0.02375257
-0.00560063
0.08470237
0.09865317
0.06548616
-0.07359192
0.08424019
0.23483568
0.04038024
0.21071767
0.07950944
0.07631429
0.10236005
0.03169143
0.01861479
0.08608172
0.34625784
0.19964486
0.00335788
0.18766855
0.08501195
0.20993805
0.01648203
0.10230123
-0.01352387
0.13690349
-0.02993611
-0.02003781
0.05531847
0.21440321
0.07291888
-0.00169844
0.01330219
-0.06645842
-0.01094447
-0.11100068
-0.03102241
0.05477378
0.08526757
-0.03535807
-0.00814747
0.25385178
0.00420428
0.23348410
0.16786698
0.06318347
0.05893912
0.01756771
0.03115291
0.02795670
0.09147588
0.17062013
0.04772270
0.06673894
0.17104180
0.09719434
0.14349607
0.22114473
0.08544074
0.07498953
0.05265443
0.05030937
0.02005703
0.05823787
-0.00600752
0.11031010
0.00209702
0.19326678
0.10693404
0.07525317
0.03889426
0.24319252
0.05186599
0.02460254
0.17322910
0.16911918
0.04679967
0.17927799
0.11488538
-0.05173936
0.12746325
0.05371375
0.11983605
0.04656653
-0.02285454
0.01100504
0.05495804
0.03437963
0.00515441
0.02703745
0.01519741
0.02201022
0.01152651
-0.02178427
0.01768002
0.01835917
0.02210913
0.03738906
-0.02221182
-0.02048995
-0.01815036
0.03041269
-0.02808815
-0.01215483
-0.01235902
0.01993191
0.03296476
0.00985493
0.03554048
0.00647856
0.04111311
0.01644791
0.01937390
0.02236309
-0.00238141
-0.02899205
-0.01363768
0.00614281
-0.00998961
0.00795637
-0.01197725
0.03304454
-0.00815117
0.02585747
-0.03126403
-0.02664668
0.01297340
0.02714261
-0.02744581
0.01550294
-0.03322234
-0.00267382
0.00767156
-0.03055223
0.00912868
0.03660368
0.02321496
0.01199006
-0.00239196
0.01982507
-0.02930519
-0.00858688
-0.00480425
0.01883280
-0.01355500
0.03474142
0.01719678
-0.01021162
-0.00576352
-0.02640391
0.02767179
0.01211694
0.03331660
-0.01332321
-0.00359368
-0.03370731
-0.00670757
-0.02025892
0.02762803
-0.00329255
0.02132435
0.02227142
0.02674019
-0.01313818
0.03048819
-0.00210525
-0.01236767
0.01463762
0.03568558
0.02317802
-0.00427103
-0.02501903
-0.02751440
0.02683275
0.02015669
-0.02455689
0.01769484
0.00169643
-0.00230615
-0.02300207
0.00457110
-0.01057802
0.01909608
0.00331011
0.00781886
-0.01538884
0.00417418
0.03315433
-0.01737548
-0.00990226
-0.00658251
-0.03357513
-0.02143446
-0.01282813
-0.00722509
-0.01855293
0.01984610
0.01412879
0.02535195
0.02434621
-0.01144720
-0.01391595
0.02388592
-0.00386813
-0.02301713
0.00761268
0.00578563
0.02350007
0.04021151
0.03432154
0.03476399
0.00222108
-0.01942999
0.00797249
0.03903345
0.02199702
0.01703946
0.00087116
0.01395375
0.03259421
0.02579277
-0.02935679
0.03373909
-0.03234336
-0.01081251
-0.01010690
-0.02358738
-0.03113969
-0.03537983
-0.03485299
0.01991939
-0.01205424
-0.01418194
0.00114223
0.01350265
-0.00429064
-0.03514269
-0.02113700
-0.01464655
-0.03527089
-0.02557008
-0.01956428
0.00159006
-0.00890199
0.02326063
0.00121054
-0.02482065
0.00458580
-0.03363258
0.02484739
0.00146573
0.02787448
0.03120488
-0.00050947
0.03124540
-0.01532192
0.02509792
-0.02805626
-0.01074732
0.02543237
-0.02719496
-0.02654221
-0.02233615
-0.00566261
0.01031430
0.02688078
0.02576103
0.01088589
-0.02997050
-0.02459981
0.01132929
-0.01982630
-0.00844980
-0.02279493
0.00698600
-0.02090346
0.01412990
0.01787963
0.01939663
0.01621160
0.00701273
-0.01485193
0.00837179
0.00250333
0.02035290
0.00390291
0.02289569
0.00973653
0.01156094
-0.02356591
-0.00054539
0.02008027
-0.01439384
0.01283274
-0.02129663
0.03163475
0.00399924
-0.03124988
0.00680636
0.00974302
-0.02013540
-0.01757863
0.02563101
0.00712908
-0.00465928
-0.00309728
0.02193991
-0.02624367
-0.02093194
0.00562226
0.02568222
0.02179508
0.02648462
-0.00166027
-0.01141588
0.01112323
-0.03347164
-0.02423447
-0.01485453
0.01380359
-0.01208609
0.02031436
-0.00183043
0.00923436
-0.00256718
0.01258723
0.00515482
-0.03428223
0.01705163
-0.02375311
0.01117508
0.03263051
-0.00561746
0.00109180
0.00404531
0.02543755
0.03370881
-0.00972907
0.03490817
-0.02293741
0.03160748
0.02487611
0.03457195
0.02237781
-0.01249845
-0.01255821
-0.00221325
-0.01025581
-0.00107840
0.01864650
-0.03216651
0.02254980
0.00324658
0.00171735
-0.00393013
-0.03503489
-0.02140971
-0.03448960
-0.03360284
0.03135621
-0.02252842
0.01328652
0.02827243
0.00756841
-0.02133596
-0.00339654
-0.00270833
-0.02334143
0.02258868
-0.00351444
-0.01056456
0.01848187
-0.01435262
-0.01170689
0.00514539
0.00886321
0.01144918
-0.03278214
0.03432169
-0.02534350
0.02157864
-0.03355910
0.03292059
-0.01088906
0.00387254
-0.00672383
-0.01020967
0.01817712
-0.00549915
-0.00809822
0.01381904
0.00768671
-0.03052599
0.00637719
-0.02045917
-0.01614766
-0.03273364
0.01254679
-0.00377481
0.02556933
-0.02668194
0.02137492
0.00833691
-0.00532028
-0.02604625
-0.02223199
-0.03217135
0.02111722
-0.01929985
-0.03356394
0.03148800
-0.03343549
-0.03140875
0.02869430
-0.00861026
0.00817807
-0.01374382
0.01689435
-0.00935910
0.01647132
-0.02691816
-0.03125434
-0.01155625
-0.02172986
0.01083714
0.00369887
-0.00216323
0.01381778
-0.01946863
0.02977625
0.00367282
-0.01043628
0.01543688
-0.02370455
0.01995773
0.02510491
-0.01022226
0.02350066
0.01050784
0.00619219
0.02565101
0.00628156
0.00847098
0.02995654
-0.00073842
0.03557501
0.00242033
0.02123205
0.01675507
0.02877552
0.00198908
0.02555120
0.03323546
0.02614712
-0.03189295
0.00835831
-0.00586830
0.00165810
-0.01353819
0.01037736
-0.00427994
0.02584892
0.03565536
-0.02455734
-0.03356992
0.01989880
-0.03516671
-0.00807789
0.00768518
0.01105542
0.03382858
-0.00237810
-0.01837731
0.00658528
-0.00813585
0.01659856
0.00644600
0.02999877
0.00211632
-0.01251322
0.02306000
-0.03160888
-0.02267631
0.02058117
0.03025253
-0.01885497
-0.00677481
-0.01133006
0.01851741
0.01540129
0.03476158
-0.02147681
0.00553592
0.03470266
-0.01031986
0.00768028
0.01888717
-0.00977229
0.03531667
-0.00914193
-0.03443116
0.03343096
0.02419425
-0.01709418
0.00430195
-0.01965588
0.03521867
-0.02496634
-0.02537140
0.00162070
-0.00176528
0.03340288
0.00572611
0.01127270
0.01826977
0.00026435
0.02813201
-0.02421933
0.02464858
0.01093514
0.02689625
0.02369587
0.02517262
-0.00328212
0.02268425
-0.02086153
-0.03131613
0.00585713
0.00508047
-0.03171375
0.03242949
0.00636360
-0.03399707
0.02090946
0.02498371
0.00601916
-0.03446071
0.02448809
0.01676711
-0.02411782
-0.00960549
-0.02071245
-0.02642922
0.03183491
0.02627453
0.02755483
-0.00361503
0.01869226
-0.03237878
-0.01468074
-0.00608689
0.03023175
-0.02669915
-0.01662856
-0.00876466
0.03169938
-0.00177580
-0.00436650
0.00184223
-0.03240962
-0.00036597
-0.00144257
0.00966827
0.00135125
-0.01624740
-0.00106231
-0.02834388
-0.01499382
-0.01228851
0.02413751
-0.00339736
0.01382028
-0.03228923
0.00588770
0.00994090
0.02969959
-0.00227175
-0.02938841
0.01267756
0.00106375
-0.00835487
-0.02912361
-0.00441878
0.00066027
-0.01003788
0.02253084
-0.00335464
0.02390060
-0.01754995
0.03420188
0.02720527
0.01779837
-0.00295498
0.00115925
-0.01656467
0.01651191
-0.03561735
-0.00919426
-0.03419620
-0.01219157
-0.02077104
-0.00187927
-0.03408558
-0.01734598
-0.03170586
0.01156961
-0.02336067
0.00173668
0.01789548
0.02503117
-0.03291386
-0.02617367
0.03162185
-0.00161836
0.01020089
-0.01413032
-0.01480180
-0.02886803
-0.02594401
0.00336254
-0.03038044
-0.03445302
-0.01455337
0.00237887
0.00242052
0.00459624
-0.01682351
0.00251745
0.03111627
-0.01530543
0.02604017
-0.02536905
0.01852958
0.02766888
-0.00700075
0.02253801
0.00352420
0.00535287
-0.01143960
-0.01429460
-0.00533025
-0.00863917
-0.00475399
-0.00942269
0.02545676
-0.03026739
0.01216128
-0.02505933
-0.02342113
0.02193156
0.01401750
-0.01808729
0.02319282
0.03517841
0.02000586
-0.01010095
0.00406037
-0.03253193
0.02813080
-0.00053765
-0.01212307
0.01845668
0.00980758
-0.02930777
0.01041127
-0.03290745
0.02894452
-0.02177882
0.00815970
-0.01820936
-0.00035914
-0.03288483
0.00886576
0.03060116
-0.00659323
-0.00139176
-0.03538051
-0.03014624
0.00926320
-0.02308736
0.02749961
-0.01243359
-0.00546036
0.01497815
-0.01296947
-0.02116878
-0.03083709
0.02680519
-0.01798643
0.03300800
-0.00944675
0.00560479
0.01575039
-0.03535345
0.01201130
-0.00955263
-0.03254662
0.00524154
0.00438283
0.01132737
0.02274647
-0.03169059
0.01415683
-0.00410206
0.03462486
-0.02815068
0.03022046
0.03495863
-0.02258264
0.00376937
-0.02384301
-0.03079731
0.02705007
0.00641092
0.01989512
-0.02163369
0.02095642
0.02477232
-0.03054279
-0.03274429
0.02206603
-0.00427525
0.00857478
0.00210213
-0.00391442
-0.01512821
0.02826378
-0.00074675
0.02582761
-0.00306767
-0.02513366
0.01285979
0.00095603
0.02473746
-0.02695655
-0.00013340
0.03230106
-0.03245037
-0.00088905
-0.02599586
0.00703328
0.01098222
-0.02107889
-0.00163094
-0.01832115
0.03453051
0.01244966
-0.03307902
0.02358854
0.01762116
-0.03010902
0.00994028
-0.02236837
0.01418004
-0.02367187
0.00943150
0.03476612
-0.03112238
-0.02702953
0.02487945
0.00152424
-0.01644891
0.00202496
-0.03323402
-0.02742574
0.01078269
0.00234686
-0.03083897
0.01404660
-0.03425648
-0.02112054
-0.01463440
0.01244003
-0.00648515
0.01944895
0.02983316
-0.00766893
-0.00381567
0.03246843
-0.01979467
-0.02190879
-0.03335487
0.02585990
-0.00856287
0.01653945
-0.03352626
-0.03484566
0.01559129
-0.02893435
-0.02616091
0.00475645
0.00830417
-0.00689553
-0.02893288
0.01078443
0.00139302
0.01756410
-0.02258300
0.00626834
-0.00410359
-0.02112519
0.02086208
0.01697630
0.02702912
-0.02133735
0.00071097
0.02114800
0.00670801
0.03260959
0.01790214
0.02262762
-0.02501349
0.02026155
0.01277324
0.00213792
0.00108672
0.01496126
0.00300655
-0.01903628
0.02174119
0.01255992
0.02143446
-0.00566893
-0.03004989
0.02821586
-0.03059878
0.00705742
0.01006568
-0.01746750
-0.02238853
-0.02975219
-0.00287840
0.03418784
0.02293839
-0.01156357
-0.02286379
-0.01206492
-0.02612986
0.01955850
-0.01516962
0.02748657
0.00647184
-0.00446883
0.01203384
-0.01646921
0.03338338
-0.02259373
0.03420633
0.00067564
-0.00591572
0.02023324
-0.02247872
-0.02019555
-0.02114997
-0.01681433
-0.02769397
-0.01603447
0.02595738
0.01808600
0.00221232
-0.03214543
0.02404809
0.03504820
-0.03367187
0.01127219
-0.01222966
-0.02082138
0.03492156
-0.00264523
0.03445140
-0.01596235
-0.01087295
0.00520895
0.01528310
-0.03455340
0.02445403
0.01295219
-0.02143284
0.02294607
-0.02208646
0.00836572
0.00746503
-0.00885090
0.02388446
0.02202934
0.01004906
0.03190478
-0.02971941
0.00029216
0.01427649
0.00820719
0.00386101
0.00261029
0.00754111
0.00590342
-0.02183180
0.03102573
0.02079632
-0.02262453
-0.00733378
0.01953344
-0.00287259
0.01750755
-0.01097190
-0.02330378
0.01866844
-0.02223216
0.02536270
0.03294988
-0.03500037
-0.03243804
0.00560132
0.00817895
-0.00557465
-0.00622850
-0.00550600
-0.03123987
-0.01003801
0.00048888
0.00476657
-0.03147580
-0.02701822
-0.02708671
0.00684878
0.01623717
0.01453100
0.02073127
0.01154862
-0.00038697
0.03382103
-0.03149945
-0.01656782
-0.00476585
0.02172239
0.00817457
0.00764466
0.00467654
0.02165670
-0.00270693
0.00191214
0.02237062
0.00056932
-0.02820083
-0.00516471
0.03070895
0.00128495
0.02504358
0.03518336
0.02696123
-0.01018183
0.00423564
0.03119972
-0.00148577
0.01286322
0.00233422
-0.02096288
-0.00832007
-0.01264880
0.02630003
0.02700725
-0.01454205
0.03051487
-0.02527485
0.01640639
0.01652297
0.01861401
-0.01166324
-0.01451477
0.00455642
0.02134412
0.02311165
-0.00878724
-0.01380085
0.03062510
0.02176233
-0.01880618
-0.00380423
0.01109162
-0.01933710
-0.01255729
-0.03480450
0.02061283
-0.01707185
-0.00057598
-0.00223824
0.02097665
0.01417543
0.02515598
-0.02738643
0.00476117
0.01644894
-0.00621419
-0.00043825
0.02688837
-0.02552209
-0.01962956
0.00978809
-0.00147104
0.00156995
-0.02136977
-0.01584120
-0.01103269
0.00555727
0.00607224
-0.01612187
-0.00839468
0.02298034
0.01578818
-0.03301734
-0.03207105
-0.03248339
-0.03210755
0.02425606
-0.01384096
0.00303075
-0.01369646
-0.02857860
-0.01850810
-0.02425477
-0.02025074
0.02196736
0.02790845
0.00924935
-0.01418518
0.01908254
0.01944155
0.00189955
-0.00684366
-0.01774378
-0.03224479
0.00750085
0.00212931
-0.00756319
-0.02265616
-0.02751274
0.01202922
0.00466344
0.03118188
-0.00789689
0.00736038
0.03482512
-0.00466599
0.01096711
0.02336690
0.01720733
-0.02171642
-0.02604385
0.02434302
-0.00451023
-0.01458433
-0.03162200
-0.01825716
-0.02239017
0.01334164
0.00327195
0.03240665
-0.00293110
-0.03054279
-0.01015129
0.01503941
-0.02707330
0.03306384
-0.01854557
0.00107779
-0.02530661
-0.01034403
-0.02260727
0.01507112
-0.01487643
0.00521013
-0.01328279
-0.01576560
-0.03517015
0.03339861
-0.02811298
0.01775147
-0.02403209
-0.01844254
0.00638021
0.00717197
0.00268741
0.01047249
0.02462909
0.01601153
-0.01190016
-0.00781325
0.01270390
0.02088303
-0.00264176
-0.03316168
0.00020815
0.00599923
0.03561644
0.01737686
-0.02863726
-0.02540445
-0.02868145
-0.01553024
0.02538095
-0.00784360
0.02539417
-0.02361612
0.01210509
0.02593831
-0.02593179
0.01970640
0.00797549
-0.01424960
-0.03445043
-0.02135858
0.02863666
0.00395126
0.02482819
0.01755146
-0.01575149
-0.02278625
-0.02597608
0.03266669
0.03381106
0.00709645
0.03521929
-0.00169507
-0.02261860
0.03512144
-0.02003249
-0.01554157
-0.02599730
-0.01299966
0.00464247
0.03509794
0.01487103
-0.00567764
-0.02423247
-0.00873816
-0.01545362
-0.01444998
-0.02474605
0.02823616
0.00701471
-0.02348219
-0.02883671
-0.00006292
0.01618336
0.03170577
-0.01822574
-0.03528242
-0.02679477
-0.00848754
0.03309855
-0.02869799
0.03432320
0.03260355
0.00532123
-0.02400968
0.03201071
0.02100302
-0.00383697
-0.02970087
-0.02771093
-0.03490878
-0.03031722
0.02287439
-0.00487214
-0.01883541
-0.02157805
0.01538852
0.00242890
-0.01060982
0.00791039
-0.02627068
0.00162228
0.01478797
0.00938069
-0.01790865
0.01077945
0.02686923
-0.01747679
0.01969896
-0.01733259
-0.02009252
0.02671526
-0.01872367
-0.02320326
-0.00367780
-0.00701906
-0.02690683
-0.01838907
0.02485826
-0.02089342
-0.01038571
0.02566376
-0.01549636
-0.02322560
-0.01492267
0.00138252
-0.00908937
-0.03524843
-0.03190287
0.01601510
0.00837625
-0.02245926
-0.01807691
-0.01255007
0.02263572
-0.00027127
0.03394366
0.01379066
0.01796623
0.01792834
0.03217236
0.03358799
0.00892931
-0.02226559
-0.02532955
-0.03046278
0.00642963
-0.01652210
-0.01313756
-0.00442640
-0.00170124
0.01219102
-0.01447693
0.01851669
0.02467970
0.00631469
-0.01581508
-0.02012395
0.00678054
-0.01200367
0.03160544
-0.02055749
0.00125135
-0.02218576
0.00260672
-0.01182722
0.01325726
0.00083609
-0.03375084
-0.00449080
-0.01694986
0.03413581
-0.00661709
0.02769374
-0.02384407
0.00376764
0.03294524
0.01829985
0.02295982
-0.01590660
-0.02184084
-0.01445570
0.03199871
-0.00060348
-0.03165330
0.02096413
-0.03000308
-0.01175410
-0.03487411
0.01249175
0.01195652
0.03244561
0.02764855
-0.02250642
-0.02545443
-0.00545902
0.00138065
0.02351711
0.03109136
0.00334410
-0.01668797
-0.02157279
0.00176563
0.01240922
-0.02959334
0.01363584
-0.01953743
-0.03236238
-0.00377860
-0.03229189
-0.01255470
0.01009485
-0.01103330
-0.01627027
-0.02622292
-0.00697232
-0.03102043
-0.02051171
0.01698787
-0.03018026
0.02769433
-0.00676990
-0.03344893
0.01962859
0.00643797
-0.02318908
-0.02154471
-0.02789567
-0.03538625
-0.02616764
0.01116272
-0.01635993
-0.01202615
-0.02278594
0.03176357
-0.00590520
0.02656419
-0.02348814
-0.00255330
-0.01292869
-0.02006574
0.02060629
0.03288045
0.00461524
-0.03137827
-0.02905676
0.03335721
-0.02668442
-0.01385418
0.01463079
-0.02115039
-0.02187413
-0.02785340
-0.01888504
0.03346875
0.01429885
-0.00635983
-0.02379025
0.02211747
-0.00603179
-0.01424360
-0.00243410
0.01332256
0.00944454
0.01049425
0.00937185
-0.03217495
0.00134415
0.02159799
0.00098604
0.02412975
-0.03418203
-0.01412195
0.02129590
0.00614749
-0.00978594
0.02795343
0.00379041
-0.00075607
-0.02161503
-0.01729309
0.01380783
-0.00777487
-0.00943220
0.03063708
-0.01002040
-0.03084764
-0.01143703
0.00190363
0.02698412
0.01824546
0.02337432
-0.01116427
-0.00414626
-0.00289543
0.03504427
-0.03048870
0.00064390
0.00067413
0.02682358
-0.03408435
-0.01091041
0.02835583
-0.01249201
-0.02532879
-0.00121096
0.01343634
-0.03308964
-0.03313484
-0.02303402
-0.01899038
-0.01471364
0.02648810
0.00894903
0.01156844
0.02141090
0.03464291
0.01643509
-0.02574042
0.00083226
0.00770492
0.02821933
-0.01150770
0.03225494
-0.01164122
0.02131115
0.03158492
-0.00641563
-0.01375923
-0.00345523
-0.01530633
-0.01212930
0.02134865
-0.02266478
0.01109298
0.03173414
0.01183855
-0.01118497
0.03435879
0.01441799
0.00149530
-0.02034588
0.03541864
-0.00773089
0.02431744
0.01127280
-0.02203428
0.02324607
-0.00800640
-0.01206041
-0.01163595
0.03541280
-0.01955537
0.01257063
0.03195345
0.00451770
-0.00183251
0.02782409
0.03381636
0.02012254
-0.01134543
-0.01720425
-0.02772104
-0.02571107
-0.00415474
0.01908622
-0.02969121
-0.02803048
-0.02781304
-0.03104671
0.02210179
0.00939654
-0.01567830
0.02180615
-0.03404863
-0.02707514
-0.00263534
-0.02036862
0.03188521
0.02507254
0.00328526
-0.01546503
0.02477106
0.01944417
0.03281989
0.02101023
-0.01175241
-0.00472691
0.01312003
-0.01365033
-0.02031865
-0.03393968
0.00485971
-0.01232540
-0.02393647
-0.03500932
-0.02895346
-0.01791339
-0.02732552
-0.02105222
-0.01324581
0.03049056
0.02405861
0.00679017
0.01658242
0.02572427
0.01542932
-0.02176721
-0.03035864
0.01160024
-0.03240895
0.00864091
0.03184950
0.02807639
-0.00762921
0.02895511
0.01337234
0.01633267
-0.01148608
-0.00922192
-0.03303194
0.00390955
-0.00744732
0.00754205
0.02729843
0.00433050
0.00824701
0.03405926
0.02213139
0.01663577
-0.02270725
-0.02682871
0.01141204
-0.03436292
0.01567575
-0.00771982
0.02707564
-0.00460922
0.00622725
0.03243129
-0.02872326
0.00953259
0.00535791
-0.03258804
0.00189470
0.03344299
0.03208135
-0.02044725
0.01406138
-0.01511902
0.00604511
0.01674372
0.02450482
0.03431208
-0.01142851
0.01608897
0.00292830
0.03253278
0.01443394
-0.01065460
0.01345427
0.02744098
-0.00176901
-0.01084797
0.02879235
-0.02180755
0.01714649
0.02015370
0.00929752
-0.01234054
0.01687070
0.01628855
0.03290633
-0.01348568
0.01941480
-0.00091326
-0.01575697
0.01578186
0.01435377
0.03401869
-0.03505144
-0.01531540
0.01504813
0.02516766
-0.01671761
-0.03209467
0.00554235
0.02192497
-0.03527618
-0.01573800
-0.02444391
0.01389238
-0.02401131
0.00950136
-0.03266988
-0.03093325
0.02340810
0.02019089
0.02493473
-0.00300866
-0.02786393
0.00609115
-0.02243439
-0.03067189
0.02831976
0.03269469
0.00412913
-0.02315150
0.01276227
-0.01723138
-0.02484709
0.01342511
0.00316750
0.02591532
0.00287849
0.02216418
0.02953494
-0.02729345
0.00837487
0.02997304
-0.00731717
0.01964525
0.00815114
0.00438581
-0.00656768
0.01119554
0.00916685
-0.01887386
-0.00432785
-0.00161271
0.01383177
0.00352250
-0.03123584
0.02711166
0.00856490
0.03279820
0.02409206
-0.02302025
-0.02606758
0.00114004
-0.00453735
-0.01520038
-0.02114913
0.03434444
-0.02499935
0.01744364
0.02079433
-0.03117870
0.02586448
-0.00654509
0.03450863
-0.01716697
-0.02261413
0.00694548
0.02293312
0.00653248
-0.01757326
-0.00361432
0.02337291
0.01381318
0.03048726
0.00149039
-0.01837860
0.03496571
-0.00711224
0.02590058
0.03204962
-0.01873446
-0.03283396
-0.02973224
0.01811987
-0.00165702
-0.00921834
0.03268502
-0.00302687
0.00149660
0.01441438
-0.01794682
0.00603219
0.00456457
0.01122238
0.00482653
0.02311188
0.02432253
-0.02394227
0.01033072
-0.00485927
-0.00580124
-0.02899789
-0.01720064
-0.02770234
-0.03422491
0.02000403
-0.01036666
-0.03497349
-0.02282249
-0.02018037
0.03279042
-0.00584266
-0.01730005
-0.03265611
-0.02343708
0.01675722
-0.00616016
-0.02646635
-0.02198394
0.03105072
0.02366231
-0.00421648
0.00136862
-0.00748740
-0.02870839
-0.02951913
-0.02008981
0.03132843
-0.01774711
0.02595519
-0.00924512
0.01216594
0.03267159
0.00926852
0.02017788
0.03416096
-0.00644173
-0.02590307
0.03490175
0.00645006
-0.01036915
0.03197788
-0.03510689
0.00804509
0.03503606
-0.02282969
-0.01091198
-0.00683839
-0.01358175
0.00281836
-0.01150195
-0.02563372
0.03431617
0.02558096
0.00259316
-0.03010650
0.03177612
0.01821763
-0.03449236
-0.02168527
0.00845854
-0.00802320
0.02619496
0.00541584
-0.03446896
0.01065855
0.00386252
-0.00519641
0.02046977
0.00304999
-0.03446064
-0.02561366
-0.00068641
-0.03385324
0.01814571
-0.00136464
-0.02096864
-0.02848056
0.02751126
0.00116389
0.01005209
-0.01970498
0.01124445
0.00865398
-0.02983831
-0.02187667
0.01426176
-0.03377647
0.03205525
0.01548369
-0.01974746
0.00479950
-0.02825380
-0.02926679
-0.02549894
-0.02700847
0.01710605
0.01407786
0.00350940
0.00186154
-0.01858643
0.00476305
0.01196216
0.01644144
0.00662409
-0.00560642
-0.02063749
0.02136974
0.00162731
-0.02884052
-0.01318066
-0.02403488
-0.01283121
0.03377808
0.02033338
-0.00695523
-0.02381288
-0.00111915
-0.00501742
-0.02747192
-0.02134975
0.01094941
0.01304187
-0.01388926
0.01739691
0.02325722
-0.00518345
-0.00121133
0.00162079
0.03404024
-0.03506408
0.01874865
0.00308900
0.01261236
-0.00052420
-0.02600119
-0.02870834
0.01455260
0.03108283
0.00863325
0.02142637
-0.01781212
0.02031265
-0.02711913
-0.01974832
0.00493175
0.00163993
-0.00784691
-0.03190169
0.03233680
0.00039546
-0.01753715
0.00757192
-0.02227695
0.00428788
-0.01074545
-0.03473402
0.03481872
0.02375750
0.00260106
0.03314467
0.02440771
-0.01436458
0.00051939
0.00130579
0.02082550
0.01023248
0.00831174
-0.00033619
0.00560102
-0.01876930
-0.01462411
0.02350319
-0.03417093
-0.00602896
-0.03195941
0.00647510
0.03132526
-0.00409204
0.01028770
0.02794777
0.03201771
0.02846484
-0.00019460
-0.02597353
-0.00296156
0.02477424
-0.02499327
-0.00385713
0.01281745
0.01332207
-0.00642674
0.00151088
0.03467178
0.02980693
-0.03289762
0.01978299
0.00432513
0.01112840
-0.01626749
-0.02578814
0.02807339
0.00482269
0.03342934
0.02961675
0.03450802
-0.03424436
0.00037757
0.03011899
-0.00262211
-0.02504902
0.02235247
-0.00631869
-0.03229846
-0.01355641
0.00342206
0.00045426
-0.02449646
0.01414308
0.03231142
0.02403528
-0.00824914
-0.00982961
-0.01016813
-0.00929165
-0.01573696
-0.00735146
-0.02522294
0.02430245
-0.03193734
-0.00577614
0.03422860
0.03185034
0.03476083
0.03194365
0.02575280
0.03355456
0.03341358
-0.00958392
0.02795926
-0.00492282
0.00108135
0.01459745
0.02447277
0.00449717
-0.03467325
-0.00781945
-0.03076286
-0.02345543
-0.02939066
-0.03416573
-0.03513444
-0.00192551
-0.00828105
-0.00958828
0.02449713
0.01169627
0.01877454
0.03498847
0.00028443
0.02255148
-0.00650196
-0.00120125
0.01868753
-0.00745542
-0.00497189
0.00872605
-0.00961514
-0.00727260
0.03485641
-0.01737017
0.02351887
0.00022347
0.03294157
0.01227735
-0.03099365
0.03398260
-0.03125639
-0.02604222
-0.02518711
-0.02493276
-0.02449367
-0.02460727
0.00885601
0.00293957
0.00151874
-0.00236115
-0.02107845
-0.01542101
-0.00308697
0.01492027
-0.02858381
0.02612536
-0.02199527
0.02581801
-0.01704435
0.00874713
-0.00117023
0.00905480
-0.03423976
-0.00202811
0.02739892
0.02499340
0.03390964
0.02462620
0.00155646
-0.03279829
0.02289451
0.00601436
-0.02312623
0.03342168
0.01679589
-0.01190561
-0.02689987
-0.01006239
0.02674824
0.01033315
0.02329075
-0.03004450
0.03062643
-0.01551050
0.02059005
-0.03367167
-0.02509943
0.03430907
0.02786062
-0.00642949
0.00734191
-0.00902390
-0.03308898
0.00881644
0.02466228
0.03002422
-0.00190445
0.02285763
0.01893613
0.03536630
0.02577362
0.00611636
0.00566638
-0.03306689
0.00382376
-0.01325202
-0.00925822
0.01263818
0.01239988
-0.01822427
-0.01274295
-0.00002366
-0.01255448
-0.01783081
0.02018013
-0.02767871
-0.01578819
0.03079498
-0.02908393
-0.02364186
-0.01134879
0.01397226
0.00304853
-0.00872348
-0.01292559
-0.00800348
-0.01441355
0.02088424
-0.02086013
-0.03119170
0.02053626
-0.03080079
0.01063895
-0.00951165
-0.02815340
-0.02125158
0.01295061
-0.00169734
0.02710089
-0.01036379
0.01579268
-0.02135635
0.02532683
-0.03247608
-0.00347288
0.00979268
-0.02444051
0.01645322
0.00487337
-0.01781016
0.02852565
0.02923887
0.03187639
-0.00414011
-0.01519890
-0.01676348
0.02357070
0.00610184
-0.03159352
-0.03300371
0.01062443
0.02465702
-0.02809022
-0.01445091
-0.02056892
-0.02052934
0.00001180
0.02809598
0.01348761
-0.00860160
-0.01798210
-0.00643399
0.00575633
-0.02836955
-0.00319579
-0.03343083
0.01713741
0.00807798
0.01873667
-0.01370350
0.02598211
0.01154803
-0.02017892
0.02214422
-0.02830636
0.00033647
-0.03033355
0.03097863
-0.02927598
-0.02621278
0.03368920
0.01706274
0.03415852
-0.03011530
-0.03310246
-0.02212468
-0.01493036
0.00262362
-0.02974299
0.03427154
0.02973631
-0.01201081
-0.00787674
-0.00022165
-0.00466607
0.02464175
0.00206181
-0.02324295
-0.00299455
-0.01491581
-0.00123216
-0.01272672
0.03234651
0.01430320
-0.02629678
-0.03167413
-0.02107461
-0.02091604
0.03501879
-0.01463631
-0.01141454
0.03299370
-0.03328786
-0.01297031
-0.03283589
-0.03067603
0.00061929
-0.01205196
0.00766188
0.00659059
-0.01349471
0.00168390
0.03029407
0.01434284
-0.03425204
-0.01008629
0.00327031
0.00352406
0.00238504
-0.03543852
0.02432253
-0.03456141
-0.01245096
0.02095476
0.01545608
-0.00303345
0.02499492
0.03009575
0.01176479
0.02429941
-0.02025484
-0.03536404
0.02157883
-0.01782841
-0.01262006
0.02445723
-0.01279015
0.02371351
-0.02330902
0.03058601
-0.00541019
-0.00108944
-0.00344438
-0.01083041
-0.02246088
-0.00198213
0.01479759
0.01652371
-0.03417236
-0.01853166
0.01679947
0.02586446
-0.01737878
-0.03136577
0.01110494
0.03379159
0.00131506
0.00038557
0.02817306
-0.02263443
-0.01102931
-0.02779606
-0.02228419
-0.02516476
-0.00991018
0.00081003
0.03500675
0.01301395
-0.01119074
-0.02401655
0.00788567
0.01911336
0.01060830
-0.03127299
-0.02743134
0.02386170
0.00245916
0.02308054
0.00467113
0.00400109
-0.03116541
-0.01424368
-0.00584874
-0.01282990
-0.00989516
-0.03045809
-0.01475259
0.02713419
0.00564176
-0.02229381
-0.03121453
0.03032675
-0.01437559
-0.01778443
-0.03055230
0.01142851
0.01873988
-0.03125983
-0.01127183
-0.02816514
-0.01956209
0.03232813
0.02666250
0.02676049
-0.03465915
0.03494545
0.01490791
0.00351430
0.02231170
-0.01613524
-0.02819890
0.02686058
0.00533536
0.00166665
-0.02168360
0.03115448
0.00692285
-0.00072191
0.02257438
-0.02314967
0.01269856
0.02707414
-0.02853721
0.03403726
-0.02642458
-0.02337523
0.00975148
0.02802959
-0.01892077
0.03419395
0.03557873
-0.00276858
0.03080779
0.02652694
-0.01172237
0.03186293
0.02575810
-0.03252875
-0.00033705
0.01235552
-0.01294970
0.00717833
0.00350181
0.02809994
-0.02686930
0.01753249
0.02354014
0.01576783
-0.01890370
0.01040024
0.02833245
0.03163061
0.00898418
0.04091451
0.03745168
0.02068257
-0.01102602
0.00379102
0.00444668
-0.00211915
-0.00090395
0.01189915
0.03849416
0.00713898
0.00057079
-0.01943808
-0.00381972
-0.01340097
-0.00544976
0.02884684
0.04140209
0.00959411
0.00052281
0.00554589
0.00350787
0.00471629
-0.01307454
-0.00480297
-0.00622606
0.00847070
0.03995816
-0.01684067
-0.00623948
0.00400220
-0.01836094
-0.01412931
-0.02789631
-0.00837198
0.02753812
0.01410882
0.02995441
-0.01124032
-0.01697307
0.01546093
0.01998393
0.01954823
0.03396443
-0.02296836
0.03643194
-0.00846523
-0.02469580
0.04501406
0.01601201
0.00365602
0.00685907
-0.02096934
-0.02298383
0.01109134
-0.00547381
-0.00828092
-0.02113355
-0.00076512
0.01399946
-0.00031369
0.03948657
0.02336900
0.02560073
0.03973533
-0.01516189
0.01505440
0.00672593
-0.02902028
0.02405499
0.02011708
0.01623276
0.01520211
0.00155435
0.00769429
0.02099921
-0.00577656
0.01530139
0.01754010
-0.01715331
-0.01245454
-0.00559026
0.00844062
0.00424671
-0.00742747
-0.02835029
0.03355910
0.02073889
-0.01552491
-0.00908207
0.00118091
0.01704654
-0.02448840
-0.01957272
-0.00377055
0.04814327
0.00503409
0.03640292
0.00910362
0.00730150
0.02798762
-0.01100805
-0.02106334
0.00207440
0.01956275
0.01886332
-0.01247668
-0.02723363
-0.00753362
0.04375556
-0.01786009
0.01243440
-0.00741680
0.02702968
-0.00589554
0.02338167
0.02400032
-0.02822238
-0.01235036
-0.03056826
-0.01377122
0.01649183
0.01134818
-0.01411391
0.03106194
-0.02629026
-0.05161165
-0.02900047
-0.06180497
0.02374369
0.08737133
0.05545007
-0.02914080
-0.03509670
-0.04473144
0.01457745
0.01476687
0.03267618
0.09017263
-0.02108800
-0.00457602
-0.05660710
0.01899221
0.05405294
0.00378193
-0.02366443
-0.05497351
0.00593839
-0.03522344
-0.02623750
-0.00392424
0.00917777
0.05309364
-0.02456255
-0.01028997
-0.04008023
-0.04387760
-0.00314984
-0.00703014
-0.00251554
0.00009172
-0.01675940
-0.02953175
0.02864813
-0.02704025
-0.01094614
0.00085485
-0.02635364
-0.06417984
-0.00817121
0.01507630
0.03271427
-0.01602480
-0.00571702
0.08859244
-0.00296018
0.10379432
-0.04604597
-0.03864440
0.05790905
0.01602322
0.00772390
-0.02281408
-0.06758553
-0.03360846
-0.00153532
-0.02328622
0.00938627
0.03191973
0.09584490
0.00317287
-0.00852517
0.04254942
0.01891169
-0.00971831
-0.05204894
-0.03764060
-0.00829991
-0.02048129
-0.00897379
-0.00283368
0.07222951
0.04321653
0.00898979
-0.01237871
0.05587152
-0.02428474
-0.00527431
-0.02239270
-0.02015239
-0.03944476
-0.03817640
-0.03880231
-0.01069879
-0.02383782
0.01642232
0.00765129
0.01724150
-0.00954893
0.03020904
0.04677613
-0.00285131
-0.03249577
0.01630769
-0.04566843
-0.03836728
-0.02861082
0.03708999
-0.00395812
0.00275229
0.01082110
-0.03788122
0.00904938
0.02120097
0.00737885
-0.00694814
-0.01112542
0.08400773
0.00893233
-0.02919406
0.01332209
0.03453038
0.07897801
0.03244638
-0.01616776
0.03776171
-0.02852352
-0.03634716
-0.03698742
-0.00270460
-0.03249531
-0.01652744
-0.03772829
0.03359653
-2.36563951
-2.73890036
-2.63577959
-1.52513232
2.20482767
0.06101919
-0.74485112
-0.67066728
-3.00689266
-0.69575130
-2.07124853
-0.93277953
2.45617358
-1.63494373
-0.52989016
-2.83624981
-0.89176666
0.61187275
-2.15974445
-1.17022093
-3.58735235
-1.24260608
-1.39377225
-3.44687052
-1.01016870
1.01875642
3.05882208
-2.31105237
-2.65345927
-2.87845404
-3.58220307
-1.84610246
-1.84673494
-0.46609141
-0.61885546
-1.37432179
-1.37376977
0.29191176
-2.69509458
-2.91414344
-0.49662398
-2.02398116
-2.76937303
-1.05797445
-1.05086994
0.92371489
-2.15120883
-1.23460088
3.40523100
-2.18754551
3.42711431
-3.63667036
-1.89174317
1.57844659
-2.25969922
-2.64913694
-3.17174253
-3.47702156
-1.28427710
-0.07278873
-2.78843135
-1.42023198
-0.49848998
1.23257787
1.38189227
-1.86771878
2.23071164
-0.42244150
-0.38375833
-1.43776505
-1.89325339
-0.84197687
-0.82736771
0.14734266
0.63579270
1.72843278
0.69543028
-0.78627618
-1.41918502
0.73784729
0.24072240
-2.84323622
-1.29885253
-2.71205210
-1.90789852
-3.29663947
-2.20467394
-2.03911938
-2.95171961
0.17582315
-3.24888294
-2.94943566
-1.17169826
-1.04351751
-0.12718439
-0.94815870
-2.31631160
-1.33524845
-3.43504795
-3.42130594
-2.19170876
1.66061504
1.03453949
-1.31713365
-0.51781983
-2.69273269
-0.53672995
1.39361346
-2.37932454
-3.60574462
-0.51634520
1.61510626
-0.52666001
-3.08080198
-0.16281190
-0.39404431
3.42854442
-1.32789321
-1.36169570
1.09603667
-0.31756230
-2.96744872
-3.60123074
-0.48908049
-1.52131694
-1.28422045
-0.81981381
0.11793141
-3.50200343
-3.94390252
-3.71511548
-1.94236333
4.78007988
1.11301419
-0.53321381
-0.41158649
-4.60341595
-1.50208564
-3.68042613
-1.50441075
4.65785781
-3.00381556
-0.92855514
-4.20229932
-0.84211420
1.74134618
-3.12912170
-1.94332856
-5.98872318
-1.77136212
-2.07884614
-5.53614115
-2.01823685
2.26166104
6.27295932
-4.01904284
-4.00234566
-4.35841067
-5.92041579
-2.72758339
-2.87207395
-0.88242832
-0.68170947
-1.80864061
-1.80757531
0.70224199
-4.90255034
-4.41441732
-0.88418367
-3.80926068
-4.59611723
-2.00601607
-1.60431906
1.75557759
-3.81641054
-1.06468852
6.09299118
-3.99026784
6.16827150
-6.25334911
-3.42296162
3.14138314
-3.13167208
-3.74600858
-5.00476763
-6.24204825
-1.65042921
0.40264628
-3.84945909
-2.45567247
-0.88509972
2.60164601
2.65963773
-2.36074293
4.11105014
-0.76279621
-0.43254242
-1.78958612
-2.30889069
-1.26832431
-1.61669399
0.51250355
1.48664823
3.20556971
1.44295479
-0.65372693
-2.37935138
1.56302817
0.49122231
-4.17966357
-1.65556659
-4.22750358
-2.79875756
-5.01412939
-3.19935336
-2.99406430
-4.24538867
1.37928167
-5.24960467
-4.42665529
-1.17970205
-1.31665976
0.00974692
-1.82104379
-4.18795846
-2.26035001
-5.40339271
-6.14491324
-4.13097619
3.58140095
2.22547864
-2.01053426
-0.92061946
-4.47554712
-0.95495926
3.18768661
-3.05280454
-6.15029118
-0.93122425
3.82707612
-0.97106137
-5.94777864
0.26982771
0.23778485
6.13828636
-2.21491525
-2.37645972
1.75206686
-0.47205569
-5.50307200
-5.99764246
-0.86134061
-2.06529104
-1.63027285
-1.44776691
0.41363850
-4.85790353
-4.55163837
-2.91415019
-1.66288144
5.79765917
1.57327986
-0.09088475
-0.20860795
-3.71984253
-1.64518149
-3.52493046
-0.44284763
5.81208815
-1.76695276
-0.56873041
-3.19809293
-0.62100610
1.80084076
-2.60245940
-0.65556084
-6.10930271
-1.87904500
-1.61903015
-5.21085457
-1.55685120
2.16840579
7.37202046
-3.14421222
-4.88549061
-5.17087639
-6.01197066
-2.08533490
-4.08331379
-0.54902449
-0.42660146
-1.57101185
-1.57170191
1.13664427
-3.90233011
-5.42909977
-0.53092598
-3.65657238
-2.97609449
-2.07352450
-0.59619371
1.79748932
-2.29668459
-1.07462434
7.06490202
-5.22496658
7.23571887
-6.75849205
-4.85651210
3.64618739
-2.59681532
-2.93367733
-6.58724169
-6.73935301
-1.51684994
0.61688499
-3.03895061
-3.90490720
-0.53258417
2.63121970
2.53150807
-1.58883589
5.27572569
0.40246887
-1.16382973
-1.87982583
-1.67018061
-1.08180143
-0.31685191
0.92562280
2.24062405
4.80674930
1.74441308
-0.72842325
-0.59602772
1.72811994
0.97211829
-3.20702830
-1.44113633
-4.15538056
-3.37099928
-3.99777005
-3.08459582
-2.83787767
-3.33243425
1.22232360
-4.66202022
-5.23796652
-1.56579364
-0.43226043
0.68539237
-1.42477198
-3.66266207
-2.43915751
-4.44469504
-6.23767657
-5.82376454
4.08419533
2.28149228
-1.36147566
-0.52180104
-3.51765582
-0.60766320
4.21743913
-3.15997806
-6.62852190
-0.60379909
5.34086850
-0.62826172
-4.53353860
0.40149164
-0.06609680
7.12558366
-1.28683890
-2.16913790
2.45903522
0.61878171
-3.41184096
-6.14720795
-0.47116020
-2.17063637
-1.41061947
-1.37770561
0.83524859
-1.61278531
-0.43367544
0.36013469
1.53252499
4.61959236
3.66690276
-0.36484953
-0.55828513
0.80760140
-1.57408229
0.76013548
2.63625188
4.97052300
1.02420688
0.12857166
-0.31624229
0.05704014
2.39256457
-0.31595405
2.64143444
-1.39073575
-0.78767082
0.77249766
-0.12294459
-0.87021093
1.47769881
5.40283307
1.33050936
-0.48240649
-0.45247391
-1.50933336
-1.04753379
-1.14619946
0.19221627
-0.30241291
-1.03449348
-1.03483981
1.53707407
0.37889715
-0.82494225
0.18732755
0.58328383
0.51006255
-1.36894192
1.78130397
3.24311017
1.15190327
1.04948019
6.50628902
-0.45836864
6.52661924
-2.33144526
-1.25686860
5.19403757
0.18028538
0.51465538
-1.94703399
-2.76341022
-1.47174682
2.48684709
2.24959952
-1.35930960
0.22652121
4.02888811
1.80448604
1.78816060
4.13280572
1.24278164
1.77071605
-0.73281814
1.29060883
-1.11404130
0.54237732
1.12333926
2.50622866
4.43599199
1.66924174
-0.83806697
2.51025604
1.37232683
0.79215230
1.14116240
-0.97634780
0.84888845
0.25306799
0.72993308
-0.77455475
-1.46054559
1.04558093
0.77482482
1.00540727
-0.33875284
0.96890570
2.26773581
2.72328145
-0.94322452
0.91304611
1.73221092
-0.15437517
-1.55073830
-2.36878145
2.81185989
1.36374530
-0.06853546
0.20827545
0.85176454
0.12147308
3.24217541
0.62619308
-2.24030587
0.14717151
4.94112853
0.18159327
-1.45783010
3.25460710
2.10356131
6.55972376
4.05612470
-1.42405711
2.75557372
1.13659025
0.92430064
-1.51348681
0.18230935
-1.68074280
-0.64064020
-0.84450027
1.33153357
-1.81030242
-0.57971126
-0.94292292
3.17980299
8.93643887
6.86777334
-0.08038649
0.01931170
0.30369269
-2.17923959
0.92733869
1.88560915
9.30501666
0.69063734
0.12861490
-2.33085534
1.00393485
5.25588062
-2.04188213
3.28281874
-3.91188879
-0.66346453
1.40113109
-2.13194496
-2.41313302
2.74692794
10.00000000
0.08021107
-0.01039718
-0.64867595
-4.15979654
-2.59571335
-1.00699823
0.16561500
-0.31966136
-1.08665757
-1.08308322
2.20923460
-0.53245491
-0.93143880
0.17554996
-1.14612655
-2.07283125
-1.76429994
2.52496078
5.01563113
-0.59043733
2.59776255
10.00000000
-0.39669989
10.00000000
-5.37820425
-1.99744105
9.44801959
-1.21701005
-0.96729477
-2.32115136
-5.79304024
-2.16861444
5.19891818
2.79335436
-1.70789823
0.19046916
7.00252903
4.76105439
1.56759084
6.45853459
1.44005898
1.94546019
-0.58502268
1.35604982
-1.54168887
-0.31211520
2.25068483
3.68014253
6.49101900
2.27275084
-0.34067298
1.02476334
1.72178428
2.70690143
0.89547468
-0.91752340
0.83481753
0.89551029
-0.20916877
-1.97037381
-2.24756558
0.30477714
2.65866966
0.30605434
-0.18387189
2.12926024
3.50455452
4.08270145
-1.79774853
-0.12677511
2.65420049
-2.25992500
-4.01885530
-3.52205333
5.46433050
2.44743448
-0.99674457
0.19866726
0.05899186
-0.05916437
6.91334697
1.03079675
-5.21747490
0.05719486
10.00000000
0.08709100
-5.80280902
6.28559971
4.89207469
10.00000000
4.75877474
-2.21663448
3.92291875
2.10010865
-1.80754002
-4.14878026
0.18893462
-2.52700734
-0.71874207
-0.86972102
2.82179385
0.47950466
2.43314220
0.54956209
5.18949978
10.00000000
9.96314016
-0.61255713
0.52998629
2.87186880
-3.12934845
4.81307414
2.79676216
10.00000000
0.94642543
0.28857288
-1.39886945
1.49953026
8.69265754
-3.12057559
4.65205432
-4.02085962
-0.02515137
3.18134132
-1.68229495
-3.21936677
3.10848204
10.00000000
1.54897221
2.90105062
2.57114243
-3.58832537
-3.34918022
0.17809900
0.26835716
-0.41533725
-0.77200584
-0.76540701
2.48700971
0.21788207
2.15096261
0.39848979
-0.08283198
-1.41744696
-0.32569673
3.95658801
7.02420299
-0.82494983
4.89725183
10.00000000
2.80437555
10.00000000
-5.69536884
0.55017297
10.00000000
0.47527880
0.50517770
-0.23724839
-5.81960643
-3.38033686
8.59376319
6.29753303
0.14595965
0.42647222
9.95490016
5.41089261
3.36299309
8.33803046
0.45830364
4.81650404
0.10123942
2.83331976
-2.16665579
-1.61193195
2.55447259
5.09843382
9.08865822
2.50780302
-0.42736593
2.35327051
1.84030960
2.75939696
3.09827509
-0.51171528
3.80871169
2.54334517
1.96152948
-2.25190525
-2.80754140
2.75454347
3.48829470
2.46559576
3.10915165
5.19592693
4.83730516
6.21935990
-1.96556987
1.57190925
5.86788472
-1.39931443
-4.29060680
-2.36810252
7.82476260
2.71729881
-1.36271385
0.36204306
2.20021685
0.19027489
9.25833493
4.49441186
-5.32475418
0.21477030
10.00000000
0.23960366
-7.37404379
9.33967005
8.25326653
10.00000000
8.59066679
-2.09295692
4.23312899
1.32962623
-1.68088420
-4.24243671
0.41089846
-2.88560148
-1.61680000
-1.25961597
3.20842294
-1.64714679
-0.26948488
-3.96238930
4.40871672
10.00000000
10.00000000
-0.77233848
1.96909917
-1.41520884
-3.96995664
1.28863882
-3.43018428
10.00000000
-3.12701139
-0.96694797
-6.73807287
0.35261951
9.41579009
-6.96001052
2.65498723
-9.99983531
-0.64129019
2.09970656
-8.27697829
-5.00992022
5.33720929
10.00000000
-3.45570060
0.39578192
0.09982923
-9.81137815
-5.42545961
-1.41602739
-0.87060462
0.09736989
-0.75306422
-0.74330528
3.39173695
-5.46596904
-0.27167318
-0.73844137
-5.36350819
-8.09965940
-0.24138475
2.10434143
6.95509555
-5.88577436
5.05089812
10.00000000
0.23719029
10.00000000
-9.99999910
-2.47364175
9.97422184
-3.96235611
-4.02632114
-2.52769287
-10.00000000
-5.45623500
9.27293272
2.91633544
-1.29474856
-0.72827589
10.00000000
8.15831530
1.01486586
10.00000000
-0.63188516
3.36015109
-0.53525057
1.09866626
-2.94839726
-2.92716127
3.51643505
7.39596524
10.00000000
3.42075111
0.14496859
-3.29798437
2.36320328
3.88410013
-0.12941960
-0.37207847
1.04618299
0.91805749
-2.71770675
-5.25683036
-4.70220233
-1.64352875
5.25123742
-1.90014475
0.61683645
5.62764139
4.12571342
5.67345718
-3.00721348
-4.15177503
3.65368565
-7.32228071
-9.99998655
-6.23679137
10.00000000
4.75085587
-2.89370403
-0.83495832
-2.23485740
-1.11722114
10.00000000
2.09281043
-9.99998889
-1.03105346
10.00000000
-0.95892190
-9.99998293
10.00000000
10.00000000
10.00000000
5.05210223
-4.16984832
4.42604494
2.12515989
-8.87146009
-9.99987551
-0.72307063
-4.22435493
-2.58738716
-2.27218229
4.17950293
0.41173011
2.95939611
1.38740867
5.37617604
10.00000000
9.36927361
0.73766001
0.45319308
3.36639851
-1.91832950
4.80909155
3.24674712
10.00000000
1.78602854
0.91136869
-1.35253028
1.65530590
9.34353452
-2.36508104
5.99343847
-2.29792377
0.99375793
4.16435481
-0.23858006
-2.22679562
3.05728277
10.00000000
3.36102083
4.31657329
4.64719567
-2.11635226
-1.55411213
2.73103078
0.90785255
1.36287746
0.17690310
0.11485992
2.32488495
0.49798560
4.10378874
1.09073951
0.33096963
-1.49606248
1.00529847
4.32453690
6.22800135
0.62622194
6.38496173
10.00000000
3.40537556
10.00000000
-3.35709229
0.75413580
9.99997881
1.60754283
1.88269632
0.82872786
-4.54163338
-3.62114467
7.51058009
7.16775922
1.39984721
1.11095683
9.35647984
4.09585732
5.30442248
8.68567514
1.69065667
4.43451060
0.30559872
4.47895917
-1.81651998
-0.87217743
2.38318847
4.51536801
9.92719383
2.26279276
1.33820099
2.23073904
1.56285066
1.92065097
3.01862967
0.08840654
6.15454566
4.58985237
2.88924148
-0.60613510
-1.80048628
3.53571274
3.33997169
2.74649196
4.33055432
4.57479734
5.64349685
7.83079614
-0.46491489
1.61126941
6.37128199
0.05968173
-3.02527891
-1.48672880
8.75897101
2.74207718
-0.69204849
0.96636028
3.82061296
0.81534757
10.00000000
5.40299151
-3.03462514
0.81962714
10.00000000
0.85001349
-6.22137248
9.40709719
7.87885282
10.00000000
8.30680219
-0.18190812
3.45839130
2.49270110
-0.29163388
-2.45132876
1.10132420
-2.65912898
-0.07480432
0.06662182
2.69196738
3.38893983
2.79557553
0.01422687
6.56831348
4.73355006
7.44101756
1.80127685
-3.00097138
-0.23850212
-4.98027828
3.28963979
3.12490604
3.30932320
6.55293836
0.58437729
1.37614824
-1.83828218
3.68111856
-1.55688456
7.84728560
4.25799138
3.15158410
8.21969683
6.38232281
-1.13106465
-0.04925487
6.24484785
4.56487360
7.73387534
1.38642411
4.55995460
-0.14286282
2.34847322
0.55811855
-3.70036004
-5.57865780
-5.58014668
-2.72996121
-1.46880025
1.33223508
0.71200080
6.21908231
-0.38628589
-3.22610968
7.27818490
0.49090040
0.00331624
5.23829207
7.37642328
3.41419425
7.39280289
3.26463160
-0.46190951
4.80276311
-0.77310986
0.58323493
-0.34114513
3.07605542
-5.50291007
5.35312750
4.58560506
2.52936364
0.72972634
7.45124424
-0.65590665
3.61624847
-0.04641251
2.60837814
4.81185577
3.31482123
-0.99386045
-4.36313418
-2.65529866
-3.08112333
-1.62005456
-1.43606198
-3.28015546
-2.92037329
1.60284686
-3.52874172
-0.99093071
7.54664128
-5.47280175
2.62618534
2.96318899
4.82452818
-2.32281397
-4.31793793
2.99784615
-1.39716279
1.96086642
5.84583377
3.22627552
3.63222780
5.15459387
-0.23233057
0.03318486
6.96800595
5.72240164
3.35930137
-1.78930974
2.63520867
-1.18897192
-3.43350297
0.62448467
-0.84469812
0.49326928
6.10994186
5.84695118
3.34825984
0.51773148
6.97287408
0.60147419
-0.62176288
8.71247234
6.96659030
7.42455251
9.99796392
-3.41236667
-0.96226370
3.71934734
0.28771357
3.78268486
0.72161618
-1.33534598
2.94942604
-2.84304412
-0.31234975
8.59261490
4.72552614
-4.75589763
6.94310773
5.00132400
7.27479567
0.20722303
-5.76668885
-2.25595754
-6.33999992
6.66040900
1.76950231
1.82813838
5.14310326
-0.91116264
-4.05481999
-4.08389463
6.08108502
-7.23187775
7.24985782
2.48950052
3.78842456
9.34410782
4.82399536
-3.25569159
2.36473238
6.76697637
2.15621760
9.25221307
3.55349145
2.11175309
-4.63428655
4.03869520
-0.92698715
-6.54523052
-6.00249883
-5.99589856
-5.98383741
-2.73431797
3.28895423
-0.80942605
4.32444777
-6.71205185
-2.06675123
8.51703618
-2.11534695
-7.30086520
5.21315004
8.25887463
9.79701553
8.55147718
1.45983036
3.14710781
3.22885705
-4.53746982
-4.75898173
1.91809283
1.23241989
-7.97635415
7.38000009
2.70543818
5.79273481
-0.85318507
8.21396563
-1.89215634
1.14859093
-3.07849561
0.33023869
6.61898386
3.95569902
-2.83833519
-7.28144441
-8.71951498
-5.93824622
-5.32221260
-4.77949884
-7.91870539
-5.63740946
-4.60865142
-8.02050457
-2.77426460
5.81926117
-5.84937646
1.41462452
3.19270712
2.82865010
-6.33497212
-8.26584725
0.29874516
-2.74618372
-0.04534256
7.84568446
5.29770704
1.41076937
4.94805643
-2.09334388
-1.63033112
9.57518512
4.50191262
1.53384362
0.40621040
2.64107116
0.34068970
-8.97043403
-0.88362213
-4.48707505
-1.00644664
7.47075074
10.00000000
1.54380719
-0.98481809
6.98563336
-0.89855959
-6.98235088
8.71724431
7.83014155
8.27254527
9.72119040
-3.09150744
-6.07442880
3.22141465
-7.43470268
1.88536924
-0.83640852
-2.81689960
-0.17059758
-4.43448576
-3.40223166
9.25947054
7.04651713
-4.43016158
2.83822942
5.92983959
4.62023059
-2.51467646
-0.18492813
2.67128312
-0.14362962
9.78378485
3.16290322
7.10017251
-0.57604168
-1.08076754
-5.57516308
1.65123822
9.99996935
-4.76764914
3.03540671
-4.16722549
2.57980881
3.94164080
-3.28343480
-2.96738303
9.03653777
6.43154811
0.86552978
5.25341673
8.76431033
-2.16776347
-5.19631926
5.26566691
-1.05220416
-0.39253398
2.38291214
2.40269231
0.03895890
4.17925921
8.31040006
-1.00898214
-1.97282770
-4.57453027
9.99994194
3.78952670
4.38234571
-5.59883033
3.38631091
8.46244838
9.99997651
8.75910173
-4.23221663
8.96125060
7.98467747
-0.97566236
-4.42170256
7.01580048
-3.30632693
-3.45471090
9.49820607
1.11411000
6.31722499
-1.01729671
5.52740027
-0.06275200
-1.28732088
1.63056202
-3.56969145
7.98000547
2.65513551
0.46942578
-2.44374580
-5.86557065
0.07302868
-0.77479210
2.71156199
-3.80820827
-0.45513515
-2.44807923
-3.16626730
-2.37222723
0.27962221
2.99258658
5.12179052
3.96009726
-2.36968916
-3.97368329
-3.72357172
-2.40755171
-0.66548975
0.77076839
5.76650617
5.96368429
1.46982663
3.37437332
-1.62870538
6.15214592
7.91645192
-2.79126894
-4.12864957
8.31354964
6.78012429
7.67449017
-4.50084412
-1.08386239
0.52493251
-1.19872050
6.52382646
8.34724887
-3.98445730
-1.16406215
4.21141665
-1.07641086
-8.12040909
5.26268154
5.20293856
8.42302797
3.87108362
7.91570313
-3.02043268
-0.94269554
-6.41966305
-4.15290898
-0.99033366
-2.36287442
-4.10528576
0.83849283
-1.98793755
6.56505732
6.76181531
0.82841176
4.55877203
6.99676745
6.44079477
-1.56021276
0.47916827
7.58009901
-0.44333536
9.23189813
6.27288595
9.58239616
2.05477194
0.20051309
-0.63316908
2.43741402
8.78858597
-2.10624491
5.37755480
-0.94816570
1.69270997
5.03989808
0.59354197
-1.43896132
4.51372147
7.36218931
4.87640833
6.08332918
7.90951183
0.29258082
-3.21633117
3.29164484
0.28521170
-0.32221450
1.47554871
1.48310900
1.41756743
6.25584330
7.41444570
0.39391173
2.26885118
1.05029477
6.89082890
4.76438562
6.89303958
0.28164736
5.07173701
9.99026549
9.74978924
9.99999889
-1.47988710
6.70226097
10.00000000
2.76040243
0.82521836
3.87243537
-1.19878471
-3.23578882
8.97691399
6.94231657
3.94052062
0.35746212
7.07446919
1.23178182
3.43929522
3.86515443
-1.46114682
7.13757818
1.09129643
5.01862475
-1.51248906
-3.03804827
1.47314284
3.53932441
6.47708983
0.90783627
-0.15505372
3.45909254
0.72257965
-0.39947421
3.50369391
1.69813362
7.66988235
4.42261868
3.04708782
-1.52068824
-1.87381880
3.22567827
0.54089732
5.17755941
6.15930885
6.57102101
4.25475176
5.67355859
-1.07289794
7.36363599
8.29382288
0.52670287
-0.81856764
4.38172155
5.45756167
4.05321357
-1.65871660
0.29272512
5.45558985
0.16307818
6.66380296
8.24472768
-1.14117743
0.13344704
7.10416145
0.21672135
-4.43797134
7.02283772
5.57381583
9.98928492
9.31334374
4.37491004
1.22118602
0.80509391
0.41505294
-1.10993987
0.40398708
-1.96118934
-2.65104495
1.33800986
0.94558277
0.32752094
2.87336913
1.61355177
4.10871594
6.08457434
6.21591570
0.37601276
1.03813425
2.98028019
-1.63887184
4.16607776
3.93287098
7.95094080
2.60444125
0.60968265
0.07697389
1.12918718
5.05620336
-0.52093376
4.49156767
0.35267034
0.59427157
3.08800556
1.85136319
-0.65976664
2.14143180
7.22512188
3.77876815
3.51868180
3.65965302
0.05216010
-1.11948447
1.86786249
0.69284609
0.62733369
-0.53473305
-0.51056598
1.68532182
0.98766634
3.22985223
0.76195614
1.98402477
0.69275386
-0.52299849
3.59622424
3.71573600
1.41076404
4.33403753
9.80830549
3.10733269
9.74525099
-0.51391140
2.10373160
8.10975359
1.89258215
2.09627525
0.49060088
-1.78329110
-1.87006401
5.37604826
5.91859612
0.32452722
0.80062726
6.20492512
2.24788708
4.11958400
3.33938273
1.57882918
3.34445367
-0.03441879
4.27002377
-1.68604514
-0.51838311
1.72466097
3.70803510
6.03784080
1.89948138
0.68960005
3.45830074
1.45481003
1.04025223
2.79377768
-0.34715574
5.06022401
3.37786986
3.04005322
0.45347730
-0.78321945
3.28303192
2.16260932
3.19035316
3.54741135
3.68913881
4.22044529
5.56065676
-0.15058922
2.43973477
5.01549938
1.58845720
-0.22505050
0.28236705
4.38234147
1.77393552
-0.25841735
0.72658695
3.74527171
0.56402537
5.27795204
4.23648952
-0.30432866
0.56831115
8.17699464
0.60518322
-2.23601019
6.02050851
4.71795243
9.91465202
7.34139636
-1.31141802
2.46481295
2.31484282
1.87423969
0.23958974
0.79782935
-1.14900132
-0.07959060
-0.71439375
2.10921221
0.26106731
2.30917465
0.91240060
3.36629490
5.83615938
5.10043875
0.63053266
1.56295667
1.23555201
-1.40007497
3.00053043
2.13755551
6.38892294
1.71827956
0.43883549
-0.34710424
0.90473080
4.41580982
-0.94231852
3.27227015
-0.25732412
0.88033271
2.24339025
0.77364091
-0.54055695
2.83804704
6.58907295
2.65403022
2.93764949
3.12934159
-0.43265729
-0.47055546
2.06405808
0.49523523
1.17489204
0.02186418
0.00664629
1.63255912
-0.70631360
2.81566265
0.55318813
0.72042757
-0.60408626
-0.14737018
2.69058461
3.23780715
0.03993643
4.04587618
8.08345401
2.56595082
8.04662587
-0.82932587
1.93486531
6.51662402
1.07673790
1.22786832
0.56187992
-1.71221329
-1.00482071
3.94259338
4.13466809
0.30825217
0.57180063
5.09502322
2.25625619
3.02178746
2.94442614
1.36320559
2.53515784
0.20198843
3.60762905
-0.98165800
-0.55636280
1.68244000
2.89643316
5.52900313
1.71011666
1.42391711
1.57884249
1.36069680
1.21431775
1.78396493
0.20836604
3.95997770
2.97826859
1.76994842
0.34885654
-0.11413673
2.07437751
2.51561927
2.08779420
2.86834819
3.00114497
3.35767208
4.73509354
0.18114661
0.89237196
3.84944722
1.16092293
-0.63351091
0.66720597
4.20233800
2.20318267
-0.75623815
0.48866087
1.93014496
0.41247636
4.79934907
3.24830693
-0.64581236
0.42408525
7.18535834
0.46677826
-2.83183199
4.89052776
4.63852356
8.15929742
4.83943485
-1.41256789
2.05944183
2.39721404
0.20146308
-0.31337591
0.56685993
-0.46215382
0.27845372
-0.80368828
1.90825435
1.88453946
3.49990610
2.11741111
3.33448613
4.58705946
4.88594592
0.53238583
0.75949416
2.50067618
-1.17714770
3.92953468
3.02977473
4.56884640
2.01027638
0.51503980
1.00092032
1.22605971
4.42599726
-0.13491846
3.47541506
1.18315366
1.14463329
2.60090517
2.10184549
-0.13647756
1.79042083
5.04730767
3.56918434
4.04813218
4.04372712
1.03671011
0.00523515
2.97002560
0.56936146
1.21825941
0.09347728
0.09835583
1.46915178
0.78432820
3.86945332
0.61067874
1.93872277
0.82176460
1.42835429
2.89043046
4.08162533
1.13716972
4.25742014
6.29384559
3.51229565
6.31856469
0.67886142
2.77272061
5.64680447
2.33629938
2.35580095
2.03677078
0.01358166
-0.88780996
3.85862529
5.00646153
1.56206693
0.62793563
4.88040543
1.63727910
3.62583321
2.70001708
1.33233457
3.44166178
0.68301500
4.50453936
-0.80573505
-0.42656775
1.50453458
2.32990657
4.28586381
1.40480415
1.46208438
2.46228006
1.16973367
0.86555085
2.63686270
0.22549039
4.82924902
3.87763162
2.85970531
1.08404982
0.28757450
3.14737600
2.16883778
3.05010789
3.81873312
3.78330104
3.58266333
4.70652519
0.45775360
2.16768033
4.49847772
2.19435971
0.84497514
1.47784282
3.07422018
1.54261164
-0.07984952
0.57563867
2.97292763
0.52203794
4.37666752
4.15998463
0.83559907
0.46159756
5.39660781
0.47584193
-1.50460701
4.80435322
4.62503688
6.33484618
5.57298200
0.12515689
2.12472459
2.05246754
1.37134214
1.12144224
0.59396673
-0.08520310
0.42234680
-0.19794286
1.59213041
0.57578280
1.26619959
0.36823347
1.33272596
3.05214843
2.82265530
-0.41669405
-0.48329632
0.87631356
-1.29394057
1.62228735
1.92648988
3.04171802
0.89143932
0.06046591
-0.19034558
0.63683744
2.54013539
-0.71122989
1.65171262
0.00318410
0.02295849
0.88770055
0.51717609
-0.39474206
1.37841889
3.37625136
1.61949709
1.56382981
1.39828743
-0.12386921
-0.89552474
1.05709000
0.06436986
-0.14161183
-0.76349355
-0.75136926
1.11580385
-0.16536188
1.36069336
0.08742997
1.13264872
-0.04317141
0.43655077
1.38261347
2.64603857
0.14627034
1.64328467
4.04867619
1.96604124
4.05271331
-0.35298379
1.47966187
3.71543152
0.66060628
0.50818942
0.56175921
-0.65506254
-1.35172498
2.24722742
2.07721839
0.49549026
0.10443519
3.30487975
0.47013697
1.24546447
2.33903159
0.52905454
2.51306564
-0.15289294
1.73094075
-1.36220169
-0.67355782
0.92596026
1.59283787
3.14280878
0.86750582
-0.10070345
1.82408195
1.02812661
-0.02103200
0.81368622
-0.68093333
1.91204549
1.63539223
0.81785452
-0.18966449
-0.67050410
1.06135579
0.59543291
1.19484471
1.50926513
2.06248361
1.50565371
2.49541533
-0.38094746
1.37033386
2.47044739
0.26075426
-0.04266286
0.53680106
2.17017102
1.26166760
-0.51936309
0.04216952
1.09762659
0.07956963
2.13640034
1.63460854
-0.22500155
0.05114045
2.66510006
0.01925462
-1.33727179
2.54629290
2.21188811
4.06842888
3.60691291
-0.45006474
1.81830568
0.81017672
0.26364387
-0.04641007
0.07458701
-0.90166937
-0.56129170
-0.79608962
0.90157001
-0.11764873
0.10434944
-0.97862727
0.24665959
2.59423116
1.55997408
-1.00297425
-0.95521102
-0.35185479
-1.08642895
0.79716741
0.74343070
3.21780311
-0.07813969
-0.24462749
-1.38453631
-0.13128560
1.76573647
-1.47918476
0.65362139
-1.40562220
-0.36800449
0.01396569
-1.15220175
-0.59850119
1.54990267
3.32650474
0.27739832
0.23815276
0.12389787
-1.44360247
-1.43418811
0.34236588
-0.22581312
-0.59289985
-1.03404683
-1.03389167
0.53008728
-1.20446810
0.12918449
-0.21756700
0.42851475
-1.29210362
0.09583116
0.45661338
1.77301365
-0.80782727
0.53054644
3.47258790
1.18812550
3.47681206
-1.61631567
0.69981033
3.29025029
-0.69956719
-0.99968140
-0.08065022
-1.64331140
-1.43682027
1.36070966
0.18123851
-0.00081373
-0.18050223
2.65850679
0.10360896
-0.25891758
1.64157719
0.15560914
1.90234387
-0.54525408
0.04759469
-1.29478214
-0.81829139
0.40075207
0.96227483
2.53771886
0.36863794
-0.67015261
0.63369456
0.68785913
-0.40080866
-0.42734633
-1.00288499
0.30780982
0.57492816
-0.70234391
-1.17588016
-1.20536229
-0.52947908
-0.26915211
-0.13831693
0.30061636
0.93389211
0.65476834
1.51161293
-0.78015877
0.09656538
1.40929946
-1.19369780
-1.31190444
-0.01517507
2.05759747
1.44924936
-0.75261963
-0.19874445
-0.26851339
-0.26552327
1.84800533
0.26083650
-1.52032475
-0.28067559
1.75479749
-0.24653809
-2.13259731
1.59574627
1.24159668
3.48414989
2.09327923
-0.64408164
1.39452551
0.18633732
-1.24544704
-1.43464414
-0.23625118
-1.33290273
-1.16174458
-1.04069544
0.27240305
-0.34618032
-0.30610346
-1.01416411
-0.16229643
1.54804754
0.58255293
-0.51390110
-0.52169898
-0.43647899
-0.61794060
0.17015331
-0.11270483
2.40574280
-0.28074760
-0.20000906
-1.24769549
-0.31709373
0.68077164
-1.23859634
0.05281602
-1.23991354
-0.34755235
-0.23198579
-1.14465021
-0.45321786
1.00374065
2.14688996
-0.26844734
-0.30958522
-0.27457635
-1.25155723
-0.96628497
-0.06873934
-0.16263160
-0.42195081
-0.60073850
-0.57914268
0.16618242
-0.94237162
-0.32701879
-0.20589733
0.01487475
-1.27100839
-0.23337209
0.04359847
0.85084539
-0.77529495
0.04900836
2.46360102
0.33926940
2.46033524
-1.33306474
0.13992791
2.03276341
-0.76297498
-1.02371770
-0.30607054
-1.33112009
-0.85528095
0.64792929
-0.40508271
-0.15586101
-0.16084562
1.47227464
0.10599084
-0.57266793
1.25560183
0.13736606
0.78121794
-0.46688424
-0.49620918
-0.78702238
-0.54821014
0.13719538
0.51558388
1.44514254
0.20582967
-0.46291065
0.30437208
0.33287286
-0.31931651
-0.64779762
-0.54267716
-0.26023015
0.00153955
-0.78124274
-1.10893025
-0.85415284
-0.79811722
-0.22934823
-0.60511413
-0.21325300
0.10097427
0.10880274
0.67057304
-0.49204234
-0.42607959
0.38897670
-1.16630844
-1.19239660
-0.43802367
1.32086531
1.04533396
-0.65908061
-0.21603160
-0.42192555
-0.22308951
1.07302377
-0.20311364
-1.29318036
-0.20527432
1.12391046
-0.23612717
-1.64605994
0.63336562
0.39642275
2.47351585
0.93994477
-0.40787944
0.71440796
0.00731554
-1.20723009
-1.26527457
-0.16985025
-0.70225481
-0.74402005
-0.55483853
-0.04588763
0.03152797
-0.01842239
0.00873718
-0.02719186
0.01914176
0.00102494
0.02922453
0.03356389
-0.02732480
-0.02080552
-0.03290814
-0.03093921
0.02734968
0.00535704
-0.03568348
0.03114386
-0.03356770
0.00803124
-0.00569727
-0.01721287
-0.01874288
-0.02941829
0.01519193
0.03264823
0.03379256
-0.00512703
0.01550639
0.03335524
0.02788449
-0.00340685
-0.02348537
0.02369817
0.01388505
0.02096610
0.03222060
-0.00268748
-0.01372325
0.02573085
-0.00483788
-0.00533377
-0.03078896
-0.00203174
-0.00055869
0.03227501
-0.03238899
-0.00052788
0.02770458
-0.03024240
-0.02821093
-0.01370697
-0.01174099
-0.01123952
-0.00741098
-0.03226335
-0.01430558
-0.00933270
-0.00167609
-0.03451347
-0.01169175
-0.00950589
-0.00220603
0.00053716
-0.02152200
-0.02403527
-0.01421103
-0.02501569
0.00899153
0.00778000
-0.03499913
-0.03156064
-0.03326805
-0.03007380
0.00212191
0.00188755
-0.03351308
0.00544721
-0.03435462
0.02990579
0.01091909
-0.02685126
-0.01951547
0.03489238
-0.00237650
0.00878784
-0.03308525
0.01903221
0.03516942
0.00095294
0.02023303
-0.01223662
0.02716134
-0.01768729
0.02401483
-0.03007495
-0.00600827
-0.02591049
-0.01937635
-0.03273103
0.01758380
-0.01866119
-0.02857738
0.02003004
-0.01302070
0.00925882
-0.01379670
-0.01081949
-0.02100826
-0.01243704
-0.01662799
0.02562511
-0.00357401
-0.00042917
0.02480321
0.02976377
-0.02735562
0.02743225
0.01308170
-0.02790049
-0.00732910
-0.00239956
-0.00442282
-0.01588204
0.01562744
-0.01612228
-0.01024271
-0.02609512
-0.00631848
0.00609523
-0.02311186
-0.02444897
0.02314832
-0.01597496
0.03129535
-0.02558666
0.02899815
-0.01821564
-0.00069187
-0.02772440
0.00506161
0.01839443
0.03361500
-0.03422669
-0.01774903
0.02270392
0.03125137
-0.00939036
0.01442188
0.00861879
-0.00157656
-0.02862150
-0.02949505
0.02971490
-0.00878926
0.02184667
-0.02212166
0.01668232
0.03146584
0.00727414
-0.01293674
-0.02736031
0.01853946
-0.02550270
-0.00762098
0.01412052
-0.01537508
-0.01433712
0.03161917
0.01964734
-0.00634724
0.00096650
0.00232748
-0.00844652
0.00245410
0.02029273
-0.02145689
-0.00200882
-0.02481191
0.02867928
-0.02910431
0.00932581
-0.03565650
-0.02288508
0.00332643
-0.00873147
0.03467588
0.01691905
-0.02776344
0.03042742
-0.01152109
-0.00498589
-0.03264717
-0.02869592
0.00522570
-0.00455387
0.02113888
0.02556491
0.01682329
0.01704377
0.00949796
-0.02523823
-0.01770402
-0.02388885
0.00202953
0.02046436
0.03211817
0.01628693
-0.01725874
-0.02840803
0.00925193
-0.01064877
0.01663207
0.00930971
0.00218044
-0.01575579
-0.03513605
0.00114203
-0.03455103
-0.02718520
-0.00414483
-0.01035783
0.00354320
-0.00107772
-0.00333947
-0.02694539
0.03008269
-0.01791487
0.03433381
0.01119170
0.03484318
0.00811748
0.02166775
-0.01857513
0.01994292
-0.01201701
-0.03382505
0.01634681
-0.03144436
-0.01536950
0.02365307
0.01352185
0.00969602
0.00457085
-0.01288273
-0.02383783
0.02452934
-0.01230450
0.01301848
0.02569260
-0.00377542
-0.02684063
-0.02037952
0.03548206
0.00779593
0.01199529
-0.02717761
0.00216434
0.02979471
-0.02855809
-0.02235825
0.02892360
0.01527368
0.03502378
-0.02536581
-0.00049769
-0.01270751
-0.02347657
-0.01986517
-0.00843759
-0.00313179
-0.03192639
-0.03063003
-0.02915006
0.00835875
-0.00779848
-0.01727361
-0.00282620
0.01561131
0.03145916
-0.01284788
-0.02387839
-0.03109576
0.00248688
-0.02411061
0.01241446
-0.02123211
-0.01557394
-0.02113549
-0.02715169
-0.00841774
-0.00777946
-0.03394237
-0.02885835
-0.00846996
-0.02359389
0.00635825
0.01453681
-0.01135618
0.02220737
-0.02961506
0.02122631
0.02599527
-0.02453081
0.02779053
-0.00136027
0.00338500
-0.02519736
0.03152782
-0.01671797
-0.02945249
-0.01703435
-0.00488207
-0.02483396
0.02116681
0.00672160
0.02329478
0.03564899
0.02686195
-0.03355499
-0.02721698
-0.01727007
-0.00562016
-0.02544507
-0.01041414
0.02162416
-0.01332468
0.03165840
0.00044669
0.01103343
0.01815148
0.00654591
-0.00345455
0.00843246
0.01772939
-0.01137830
-0.02864210
-0.01459989
-0.00086138
-0.03282857
0.00439643
0.00540042
-0.01414864
0.03522864
0.01628075
-0.02869611
0.00623596
0.00386125
-0.02876141
-0.00261638
0.00602054
-0.02026411
0.01582783
-0.03531391
-0.00999489
-0.03030059
0.02202454
0.01239472
-0.03435648
-0.01324306
-0.01228614
0.01950928
0.02901714
0.01997359
-0.00777255
0.01103225
-0.02711900
-0.00070036
0.03214665
0.00773391
0.00218535
0.00082879
-0.02257996
0.02375099
0.00034315
0.02941508
0.03076917
-0.02913518
-0.00243796
-0.03370653
0.00396273
-0.03213171
-0.01825635
-0.01592372
-0.03173133
0.00746304
-0.01051003
0.02600749
-0.01585652
-0.00915222
-0.02294985
0.00757162
-0.02535722
-0.02964699
-0.00816908
0.00258451
0.01709954
0.00042621
-0.03383014
0.01353191
-0.02755416
0.00406950
-0.02135358
-0.01441983
-0.00789379
0.01470385
-0.02071904
-0.01283891
0.02128295
0.01255728
-0.01083116
-0.01046861
0.01613985
0.00662678
0.00932195
0.02012281
-0.02162446
0.03452621
0.01041601
-0.00176670
-0.01034030
0.02318044
-0.02990937
0.00001677
0.02924774
-0.00236416
-0.03311301
0.01063300
0.03377634
-0.03122886
-0.01154938
-0.02949211
0.00855493
0.00281132
-0.00819766
-0.03505315
-0.01819912
0.00679758
-0.01217778
-0.03263045
-0.01635943
0.01270535
-0.00738477
0.03549471
-0.01638216
-0.03377711
0.01990324
-0.00229233
-0.03496518
-0.00539504
0.03165525
-0.00959119
-0.01792888
-0.03396841
0.02613986
-0.02439543
-0.00061828
0.02874114
0.02195185
-0.00255623
0.03322657
-0.02531181
0.00366594
0.00606721
0.01321379
0.03118257
0.00672834
0.03072896
0.00226587
0.03026485
0.03381279
0.02162073
0.00725591
-0.00928627
0.02140116
0.02658804
-0.00734909
0.00559011
-0.01141858
-0.00659998
-0.03551922
-0.01547761
0.01952311
-0.01773381
-0.01373173
0.00994869
-0.00641496
0.02136427
0.00297554
-0.02017739
-0.01690625
0.00048782
-0.00977492
0.02247398
-0.02915926
-0.03227542
0.01794227
0.01328337
0.03416783
-0.01550615
0.00783393
0.03226634
-0.02959971
-0.02062444
-0.01273421
0.02751573
-0.02975068
0.01563099
-0.00260845
-0.00545497
-0.02668328
-0.00241338
0.01478170
0.02855412
0.01556709
-0.03466432
0.00278852
-0.02656216
0.02241424
-0.02995023
-0.01102526
-0.03020629
0.00625188
0.01491410
0.02798198
0.01280691
0.01835297
0.01020996
-0.00962401
0.01680652
0.03041809
0.03392421
0.01335857
-0.03489590
-0.02241452
-0.03508993
0.02833411
-0.01645092
0.01625534
-0.00998862
0.01380840
0.02528634
0.02331228
-0.00712419
0.01812617
0.00316508
-0.00607422
-0.01479959
0.01231721
-0.01937427
-0.00903553
-0.03442234
-0.01386627
0.03293063
0.01620605
-0.02159858
0.01002325
-0.00115527
0.02432567
-0.03531504
-0.02006304
0.01902947
0.03432345
0.02900981
0.01984786
-0.02380536
0.02963417
0.01246769
-0.00454199
0.01017522
-0.03323522
-0.02644788
-0.00025273
0.02579134
0.00214222
-0.01784084
-0.00675786
0.03178228
0.00307385
-0.03015494
-0.02330627
0.02975260
-0.02886300
-0.00145826
0.02696895
0.02305734
0.01265745
0.00127791
-0.01381222
0.00126883
0.00167715
0.00183903
-0.01541599
0.00028632
-0.00486545
-0.03128242
0.01219524
-0.01094557
0.01689956
-0.02806103
0.03494394
0.01937862
-0.01879463
-0.00102308
0.00945568
0.01906188
0.01685037
-0.03301647
0.01512987
-0.01579007
-0.02745712
0.02753789
-0.02175176
-0.02060583
-0.00963466
-0.03049710
-0.03326278
-0.03269150
0.00649510
-0.01136072
0.00429161
-0.02754203
0.02619259
0.02458991
0.00845857
-0.01438714
0.02902178
-0.01506047
0.01038158
0.01020705
-0.00740721
0.00961123
-0.00612861
0.00951244
-0.02712613
-0.03238722
-0.00713997
0.02543852
-0.02968941
-0.02772438
-0.02606584
-0.02143224
0.03552779
-0.01210331
-0.00632379
-0.00982116
-0.00688612
-0.00387229
-0.00679837
0.03532327
0.02048128
0.03320753
-0.02793304
0.01095959
0.02208315
0.01623982
0.03228674
0.01539065
-0.03453494
0.00695403
-0.01011659
-0.00622787
-0.01914902
0.01946908
-0.03242971
-0.01056087
0.02279615
-0.00385539
-0.02083664
0.02882103
0.00413451
-0.01118819
-0.02832550
0.00394802
0.01242279
0.00106499
0.02984115
-0.03017761
0.03290699
-0.01267151
-0.03056863
0.01767398
-0.01517826
-0.02278738
-0.00708072
-0.02880940
0.02916672
-0.01050827
0.02229554
0.03034607
0.03216005
-0.02353533
-0.01159609
-0.02270326
0.03164804
-0.00831151
0.00245016
0.01872990
0.02354738
0.01732780
0.01183664
-0.00803239
-0.02957467
0.01922543
0.03162991
0.01856241
-0.01542387
0.02575678
0.02409908
-0.01823116
-0.02262902
0.02924474
0.03515710
-0.00209299
-0.02925693
-0.00763790
0.00481189
0.03562408
0.01756811
-0.00860685
0.03025586
0.01401387
0.00357210
-0.01705452
0.02702490
-0.00049415
0.01034826
-0.00623923
-0.01747854
-0.00181865
-0.02462571
0.03007239
0.02586325
-0.01848609
0.01358353
0.02177888
-0.03563797
0.03387395
0.01182137
0.02417539
-0.02007150
0.02490664
0.01770585
-0.02062869
-0.01290064
0.02416321
0.00744769
0.02762554
0.02407300
-0.01069848
-0.01669560
0.01861458
-0.03239889
0.02259078
-0.03415423
0.03034029
-0.01361766
0.01190832
-0.01161322
0.00461809
-0.02562462
-0.00052465
-0.00102381
-0.03547565
0.01670354
-0.02315457
0.02201751
0.01677985
-0.02499491
-0.00187540
0.02329471
0.03586985
0.04019132
0.04491520
0.04585957
0.07372732
0.02326501
0.01215330
0.03050731
0.04931766
0.03948931
0.06213552
0.04684217
0.05525593
0.02529269
0.06777393
0.03658869
0.06728389
0.05067821
0.08210549
0.06893514
0.03645192
0.03436316
0.10955050
0.02262834
-0.01901337
0.01580609
0.04496165
0.08583103
0.04319096
0.08661072
0.04104211
0.07454974
-0.00408599
0.07031962
-0.00116554
0.04206703
0.05496058
0.01627852
0.04839808
0.04401051
0.06869589
0.01866241
0.02690697
0.05631916
0.04416101
0.05047356
0.02998468
0.09161105
0.04877927
0.10585000
0.04193101
0.01806543
0.01610437
0.02371525
0.02463549
0.01365925
0.02486532
0.03231364
-0.00466174
0.07018102
0.01309361
0.01757503
0.03049582
0.05131813
0.03807504
0.02143209
0.02989424
0.00022801
0.05538152
0.06478643
0.06111528
0.07903507
0.05590889
0.02753135
0.01803803
0.03037401
0.08756095
0.03864900
0.00488628
0.05275845
0.03902914
0.02143187
0.05068213
0.07435774
0.06514371
0.04052586
0.07715901
0.08105061
0.06053415
0.02030974
0.05286489
0.06835064
0.05613818
0.09134273
0.02058293
0.04357385
0.03779775
0.07364778
0.08299951
0.00608817
0.02280941
0.02894391
0.01448399
-0.00347490
0.01419761
0.02135712
0.06302405
0.01942089
0.03327894
-0.01054135
0.09417996
0.01306230
0.05096629
0.09526602
0.02445873
0.05753802
0.02323645
0.05277976
0.00498025
0.04636339
0.02440246
0.08215688
0.02679212
0.03512060
0.04231679
0.05876986
0.01477111
0.22202314
0.00726268
-0.31221884
-0.46332499
-0.13760681
-0.45859099
-0.38924817
-0.02509709
0.12049290
0.04986504
0.30959406
-0.09759710
0.38283872
-0.52121985
-0.10471789
-0.53071367
-0.07876709
0.13654460
-0.25066480
-0.40843515
-0.57029688
-0.23235716
-0.29831375
-0.58615400
-0.17974127
0.27041702
-0.17075961
-0.51477207
-0.56355852
0.06123022
-0.55394138
-0.49819023
-0.38530619
-0.08495771
-0.14205142
0.25254533
0.23386036
-0.04727849
0.09652550
0.01372228
-0.12246173
-0.45080991
-0.16721026
0.09108811
-0.23469284
0.13646337
-0.46249299
-0.39321872
-0.09359581
0.36465680
-0.08862198
-0.61657443
0.27869775
0.13661552
-0.20406081
-0.40244352
-0.35580184
-0.51401907
-0.12346710
0.34593095
-0.25384453
-0.26411650
-0.09835205
-0.42672430
-0.38454344
-0.35929700
0.16301879
-0.51340161
-0.02685512
-0.23106699
-0.19495701
-0.08787318
-0.30402202
-0.13537360
-0.08462845
0.16574034
-0.08144619
-0.24373028
-0.19017522
-0.08779543
-0.48462110
-0.46701859
0.13193163
-0.30561468
-0.38060285
-0.38652136
-0.35473924
-0.28809654
-0.28237191
-0.28101048
-0.39181286
-0.32744497
-0.17345782
-0.30531605
-0.41964913
-0.18862607
-0.00991848
-0.28737857
-0.55303487
-0.56521514
0.20056073
0.09574882
0.18299465
-0.25002859
-0.14747460
0.00407542
-0.10195557
-0.24568751
0.17034870
-0.57460283
-0.12805204
-0.39919744
-0.13012302
-0.34311486
-0.43572871
-0.42461917
-0.11293868
-0.45964720
0.21561518
-0.37519067
-0.33202159
-0.44585415
-0.56619512
-0.13105741
-0.16898398
-0.55655559
0.03696072
-0.39755312
0.22385045
0.46489682
0.29675579
0.19358571
0.39840840
0.38140923
0.11433541
0.15671945
0.27042820
0.00998716
0.61209682
0.53429636
0.54883822
0.08464809
0.07910688
0.06526631
0.16720665
0.46764777
0.09891446
0.27058117
0.24924097
0.05646520
0.17255903
0.32030540
0.01069336
0.23584466
0.35662360
0.29065881
0.29546092
0.61525046
0.12421639
-0.04264474
0.34153044
0.07005122
0.20192886
0.18798564
0.17477926
0.21689533
0.17510374
0.52038893
0.04677720
0.09500873
0.20724820
0.28375772
0.36699647
0.66139753
0.17267707
0.37237570
0.71060283
0.44222443
0.70907147
0.16454442
0.41794809
0.68720949
0.37591931
0.28697433
0.11620158
0.03224486
0.07229509
0.41841662
0.57219493
0.18433727
0.04679086
0.44510907
0.19275317
0.36799478
0.51382410
0.13886289
0.46878918
0.04292618
0.46837214
0.05972009
0.04399694
0.22096744
0.24664087
0.55609382
0.19335599
0.13460696
0.29817134
0.22118014
0.05280182
0.08913651
0.17728080
0.52470457
0.41089903
0.31143343
0.26272570
0.12076080
0.35431036
0.32707525
0.26493510
0.38424046
0.38791286
0.29163799
0.45889703
0.09003652
0.33065172
0.43705947
0.28966796
0.22978756
0.38886796
0.41926404
0.22493028
0.08228551
0.07209037
0.36830227
0.05666848
0.17676887
0.57340561
0.14836255
0.08660513
0.35036863
0.07555365
-0.03036011
0.37656609
0.26877422
0.77747667
0.54208317
0.18697334
0.30828320
0.07616928
0.22088778
0.21354122
0.04158238
0.03206158
0.05526221
0.07890951
0.12136061
-0.06786409
0.03859008
0.06839083
0.19624483
0.29966766
0.26774338
0.10210570
0.11938752
-0.05880106
0.02509201
0.11191001
0.23879354
0.26730692
0.16448271
0.04433488
-0.03232686
0.05825893
0.21362659
0.02452201
0.21615835
0.07651038
0.06588357
0.11720213
0.13874969
0.02432373
0.16773062
0.38866721
0.14200346
0.15076531
0.08742755
0.02470309
0.12248344
0.14388063
0.08122837
0.22002485
-0.02436706
-0.03117109
0.12656098
-0.05790825
0.11477050
0.08335236
0.09269988
-0.01557424
0.07951610
0.16240713
0.28112413
0.09128396
0.22436180
0.64273184
0.03759400
0.61508254
0.08521964
0.01023060
0.33816541
0.08197712
0.12773689
-0.04686574
-0.05854710
0.07112964
0.15686910
0.11735242
0.03279827
0.05389042
0.36692536
0.27916856
0.15262681
0.27073745
0.19977714
0.19722661
0.00537425
0.12987056
0.09294058
0.10543138
0.11416895
0.22984363
0.29533885
0.19984711
0.14454622
0.17610616
0.16712493
0.19962902
-0.00147597
-0.00639874
0.19037864
0.18884253
0.08557929
0.12875040
0.06836715
0.02889250
0.21741227
0.03307931
0.08250334
0.08415937
0.18571082
0.30091035
0.07171012
0.02996973
0.24628726
0.02198807
0.08813220
-0.03093957
0.25767781
0.12318248
0.07976034
0.05024254
0.05164582
0.02662918
0.24470660
0.09083374
0.03224267
0.05699705
0.45179613
0.02816072
-0.06581351
0.31587980
0.21313931
0.60250411
0.20302841
0.02205801
0.27816016
0.09329755
0.06890013
0.10945501
0.06329184
-0.00558291
0.09196341
0.04049961
0.16603018
-2.88601979
-2.84121271
-1.99349449
-0.44166196
3.41700394
1.58177590
-0.20583356
-0.25571133
-2.57592115
-0.70648651
-1.83165537
0.47791827
3.16317736
-0.37181572
-0.12811847
-2.24079924
-0.38472444
1.28480124
-1.21484559
0.20699182
-2.71553033
-1.32658353
-0.96427459
-2.24335820
-0.82282276
1.50913421
4.20209395
-1.39532611
-2.28457250
-2.55402495
-3.15914878
-0.96642219
-1.56372513
-0.13179716
0.09439228
-1.44611813
-1.44639922
1.32914984
-2.47404791
-2.77588400
-0.11330757
-1.26856810
-1.88723513
-1.25224115
-0.15804502
1.73187564
-0.88998491
-0.66947471
4.78805877
-2.41683862
4.73399297
-3.06518243
-1.95976739
2.48145941
-1.96015663
-1.72179092
-3.26942979
-3.56369427
-1.00405584
0.71325346
-2.05210580
-1.44405424
-0.08179687
2.55398429
2.88801990
-0.99572419
3.11322222
0.86019322
0.17381726
-1.32029847
-1.62190887
-0.33988924
0.13485449
1.14260174
1.83715810
2.42079433
1.84423015
-0.44723080
0.04993071
1.63769871
1.48442703
-2.15275709
-1.36431793
-2.02974302
-1.32007807
-2.66717516
-1.29123534
-1.63836145
-2.44227406
1.23102553
-2.50703727
-2.85718669
-0.95731842
-0.05935228
1.03094283
-0.83588105
-1.38216505
-0.29649514
-2.70977998
-2.69855183
-2.31567792
2.89635316
1.76183907
-0.47997843
-0.13897357
-1.94561190
-0.18164161
2.15802419
-2.15752729
-3.04719759
-0.18405082
3.67723923
-0.14199698
-2.33330268
1.67657315
0.66852490
4.83407374
-0.27211981
-1.64808088
2.55383662
0.58379767
-1.78793884
-2.72772037
-0.08184474
-1.60801310
-0.65899435
-0.53191653
1.60805366
-3.62545580
-2.53406371
-2.53390370
1.43975070
8.53503519
5.72216847
0.77635673
0.77709812
-2.51375942
-1.30404790
-1.09316766
0.59362309
7.77274497
-1.64770590
-0.46470040
-3.58547937
1.15342722
4.79397338
-2.20372444
0.67662128
-6.56161469
-1.28273081
0.09925304
-4.99056572
-2.96823890
3.52307189
9.46739512
-2.45499012
-2.40529390
-2.53446330
-5.98736527
-2.92179957
-3.06058695
-0.38945088
-0.47012795
-1.80986653
-1.80843770
2.70986261
-3.68165040
-3.17625325
-0.25489010
-2.94332877
-3.04434544
-2.16479759
0.90850228
4.73316199
-1.82706723
1.53588711
10.00000000
-2.89760731
10.00000000
-7.38341342
-2.82272719
6.36365983
-2.06253783
-2.56308387
-4.89478848
-7.42591086
-1.24659023
5.31066568
-0.44300757
-2.40801180
-0.25668994
6.16023830
7.17958356
-0.38668529
8.31255078
-0.08553507
0.81096359
-1.23072841
-0.85777717
-0.68235901
-0.31789639
2.94629049
3.20923412
5.09745289
2.86360348
-0.47989764
0.48718674
2.35760953
3.06694816
-2.49574629
-1.49427275
-2.35730328
-1.62036093
-3.59269285
-3.23989260
-3.23254821
-2.58017044
4.50465161
-3.67468721
-3.14723711
0.40700202
1.38754097
2.31715946
-2.07875302
-1.95755371
-0.34564454
-4.97256462
-6.62622650
-4.20359960
7.11272278
2.98071149
-1.40833856
-0.38095147
-2.31986315
-0.53032358
5.83958889
-1.06798080
-7.12230911
-0.50672469
10.00000000
-0.43597089
-6.73658502
5.02651694
3.94729120
10.00000000
0.66822187
-2.54392496
4.50001936
1.25032152
-3.21394751
-6.64274343
-0.24512782
-2.72326397
-1.19196882
-0.17966027
3.07500451
-6.53262228
-3.86858884
-1.66573394
5.41264385
10.00000000
10.00000000
3.64537077
2.54401242
-2.80740442
-0.05013035
-3.05374937
0.87287184
9.99999995
-0.50724253
0.87615620
-2.78656933
4.42499303
7.51181960
-1.00676994
4.03258230
-5.98793981
-0.97113094
1.56307165
-3.54908400
-3.68192892
4.22169453
10.00000000
-1.13083591
-1.66764446
-3.39518801
-6.49887660
-0.84962136
-2.12071362
0.92403976
2.95554771
-2.25117713
-2.25067124
5.55700359
-4.53006919
-4.23945080
1.15064938
-3.99643939
-1.53207371
-1.94608190
2.05093386
6.39314187
0.65319453
4.74528342
9.99999995
-6.04625736
10.00000000
-7.78777505
-6.41858109
9.82049341
-2.24407275
-1.65758265
-4.70680183
-8.82720341
0.31962911
6.82242921
1.13658014
-2.31065763
1.16706595
10.00000000
10.00000000
0.90699676
10.00000000
3.16764034
0.11924190
-0.86171748
0.24767862
0.50942636
3.16490169
5.80660522
5.99619841
8.48972770
5.20062838
2.43078044
3.16236836
4.28579925
8.32252695
-0.76722142
-1.72595862
-1.04980329
-0.51034424
-3.23599163
-1.34928500
-1.88493226
-2.26011709
9.41721454
-2.93447626
-3.80086051
1.22421907
4.24839530
6.43100275
-1.86246662
-4.36705429
0.65204761
-5.32237407
-6.82493111
-8.25884006
9.86398664
3.79135069
1.38437537
1.02121421
-2.90078371
0.69835834
9.99955253
-2.10768781
-7.53443486
0.76334479
10.00000000
0.80015133
-7.36082859
8.90471296
8.42665796
9.99999994
2.01417998
-2.59568921
9.94053610
5.57018490
-0.93971454
-6.13060578
1.14887489
-3.32415118
1.05676346
1.66120340
6.72948909
-5.87392832
-1.06282515
-1.20523669
9.99704026
10.00000000
10.00000000
8.44839239
5.45100707
-4.17679832
3.45071205
-1.38225329
0.19156635
9.99806205
2.10749827
2.36289019
-2.94023646
9.01643372
9.11424282
-1.02725391
9.95897377
-4.68608367
0.94058562
4.65417377
-1.68478990
-4.65477087
7.06240033
10.00000000
3.36751534
6.65930522
-0.64390402
-4.86670571
3.31817141
5.38029271
2.38727648
9.50220543
-3.10333382
-3.09741450
9.99999946
-5.35665054
-1.07790479
2.38920957
-3.78934966
-3.62765683
1.38112124
5.22645458
9.91614825
1.04302576
9.99844583
10.00000000
-3.83345111
10.00000000
-6.19155117
-5.52224432
9.95958863
-3.30768697
-1.06965738
5.60012600
-7.74877878
2.66392790
10.00000000
4.91002653
6.40245652
2.38519198
10.00000000
10.00000000
2.26469277
10.00000000
8.34439555
2.36877499
1.14504918
2.17793425
2.18533512
4.56536326
10.00000000
10.00000000
10.00000000
9.42882188
9.80521073
4.04222191
7.75078203
10.00000000
2.99901992
-2.23021684
5.15848882
7.67358199
-3.10841940
1.36993355
1.88160251
-2.72577348
10.00000000
0.59708393
0.60840358
4.78709129
9.64182929
9.99986470
-1.76840396
-8.40120831
6.76711414
-5.87729764
-5.44266807
-8.98087522
10.00000000
6.01347244
2.79226492
2.40220696
-4.90254799
2.34708257
9.99995365
-2.04936057
-5.63357015
2.34801169
10.00000000
2.35661245
-9.61030035
10.00000000
9.99994645
9.99650379
5.73534363
-0.94705878
10.00000000
10.00000000
-1.67795219
-4.69390547
2.37833646
-4.02886725
6.22658765
6.39784810
9.99999725
-7.11700429
1.85299325
-1.30008615
9.98865026
10.00000000
10.00000000
9.99998893
8.14210741
-2.84495189
0.01612079
2.50537567
4.40834459
9.99585474
4.45382522
1.68117223
-5.36027984
10.00000000
8.94910576
-6.77212974
9.97283420
-9.35228324
2.38329310
9.99945145
-3.81305884
-8.14116831
10.00000000
10.00000000
8.07899766
9.96316510
4.31764517
-8.15939925
2.78221908
9.12714877
1.75159456
10.00000000
-3.95174949
-3.93457245
9.99997298
-8.46293762
4.09478290
1.85000967
-6.11287883
-7.78289025
-0.53302814
9.99997288
9.71185685
-1.06782371
9.99990189
10.00000000
-1.92153628
10.00000000
-9.98314337
-8.57400487
9.99093653
-4.92471263
-1.09331231
6.95419850
-9.98216797
-2.42943714
10.00000000
9.97669130
8.13665126
1.85209611
10.00000000
10.00000000
7.49195293
9.99001231
9.99999532
7.68511976
2.76009799
6.00229229
0.56116177
4.25346207
9.99999557
10.00000000
10.00000000
9.99931951
10.00000000
3.16088597
8.74282678
10.00000000
7.63978494
-2.80130996
9.99874099
9.99833070
-1.02050969
-1.76981005
-1.64400526
-0.51955508
10.00000000
6.11771084
6.15948710
9.98588142
10.00000000
10.00000000
-3.21169334
-7.96593915
10.00000000
-5.61438676
-9.79348529
-9.98224722
10.00000000
9.58704121
1.62025452
1.79170075
-4.72051053
1.63520563
10.00000000
1.97981790
-9.81963130
1.63765753
10.00000000
1.66314372
-9.99717181
10.00000000
10.00000000
9.99717268
9.98715852
-3.80511980
10.00000000
10.00000000
-5.09924297
-9.24670765
1.84920115
-6.75818311
8.50555487
5.30087786
10.00000000
-6.69993638
8.07541624
0.83803252
9.99728616
10.00000000
10.00000000
9.99999913
9.99999843
1.90823030
-1.60467571
9.99964003
8.93363594
10.00000000
5.43523861
1.15893351
-5.37008269
10.00000000
7.50788882
-9.16650618
9.96168630
-9.58766915
3.93105650
9.99997159
-4.08882572
-10.00000000
10.00000000
10.00000000
9.96987938
9.98000586
9.95419266
-8.91409007
-0.79827637
9.99825483
1.26904482
10.00000000
-4.74075000
-4.72144892
9.99926489
-7.63907160
9.95693303
1.57181898
-6.42786009
-7.76401038
3.13669350
9.99997308
9.29128559
1.03552100
9.99991112
10.00000000
1.18759510
10.00000000
-9.99211811
-8.38969588
9.99939433
-2.16584195
1.20955799
6.78041985
-9.99208976
-6.21917824
10.00000000
9.99413326
9.84710867
1.58835008
10.00000000
10.00000000
9.98568134
9.99208094
10.00000000
9.96780067
5.29535768
7.54043763
-0.79261063
5.40607553
9.99958445
10.00000000
10.00000000
9.99810479
10.00000000
8.87276700
9.85981870
10.00000000
5.08880699
-3.04713624
9.99983406
9.99923395
3.07675889
-5.11193862
-5.34709501
3.85835540
10.00000000
7.49504051
9.96937039
9.99965378
10.00000000
10.00000000
-4.22479781
-8.04489339
9.99999379
-3.61909080
-9.97383257
-9.98279050
10.00000000
10.00000000
5.22388541
1.34113459
-1.26153502
1.07155026
10.00000000
8.64109694
-9.98938024
1.07536327
10.00000000
1.12329058
-9.99937000
10.00000000
9.99999696
10.00000000
9.99525272
-2.45960019
10.00000000
10.00000000
-3.90784279
-9.50772498
1.59567518
-9.00764954
8.74896949
7.01312799
10.00000000
-1.14581225
9.94738751
-2.59654600
9.99495616
10.00000000
10.00000000
10.00000000
9.99999845
-1.94440287
-0.08242826
9.98215467
7.83475838
10.00000000
8.35024283
0.97804397
-9.49453719
10.00000000
8.61489669
-9.99998431
9.88931429
-9.65733004
