2.39660500
7.12517945
1.76698817
-6.30737338
-9.99999991
7.78914211
-10.00000000
6.79566155
-4.79035845
-4.02511444
2.13025592
1.81122483
-2.55365567
0.24567680
-10.00000000
0.17029485
-9.99998901
0.59695986
0.12489000
-9.98498442
-10.00000000
-10.00000000
-10.00000000
-3.03401951
1.30357109
3.77011044
-10.00000000
1.20963202
-5.46591703
-2.37151740
-10.00000000
9.30233800
-8.78747209
-9.99993879
-5.59026536
-6.36486319
-7.38500654
-1.92987939
-10.00000000
4.76252668
-3.54210570
-4.51374939
8.82086299
-2.46391079
-10.00000000
8.17492987
2.76111493
-10.00000000
-6.92030033
-10.00000000
-10.00000000
9.99696293
-4.12411147
2.98783009
-10.00000000
0.81407584
0.36887232
-10.00000000
-2.36813812
-10.00000000
-9.99998619
-5.31736918
-0.41495215
-1.20508858
7.96207753
-9.61668112
6.60270829
-5.94467703
-4.37164559
-1.92169831
8.41951104
-10.00000000
-8.74193693
-1.49570661
6.59008354
-0.50256039
9.41308191
-1.32685841
-10.00000000
-6.82085437
-4.24138959
-10.00000000
-6.29057878
2.83834765
-5.73217910
4.64922901
-10.00000000
8.88323651
-10.00000000
-1.74257037
-4.82742786
-10.00000000
0.07568378
-10.00000000
7.29251512
-9.60376859
5.12758663
-5.69834869
-10.00000000
-0.28474975
9.99994375
1.25735945
0.00604132
-8.53268765
-9.99998315
1.11666275
-6.61270972
-9.99995793
7.34849542
-9.99770473
7.74506862
-10.00000000
-1.36537515
-2.50767951
-5.14907189
-9.99998539
-9.99879502
4.96050280
-9.99615625
6.80446957
8.90173369
-9.99998561
-9.99995358
-3.35033307
-3.72790950
-5.70557986
8.39857087
6.07199085
-10.00000000
-2.77190929
-7.56612068
8.59969652
-9.99999977
-4.03433561
3.46236578
2.83002942
-2.62200786
0.37428263
-9.56233320
2.96768717
-6.56640965
-4.64659071
-2.35011496
-1.59241486
2.01522408
3.58470804
-3.98317106
-3.52781919
2.63294418
-0.33474154
-10.00000000
-10.00000000
-9.98779034
-7.19417654
3.67375736
-0.32557980
-10.00000000
6.10200065
-10.00000000
-6.36045415
-9.70912190
-9.99995884
7.23948217
-9.99984385
-7.43362083
-7.75108253
6.42010206
0.28657949
-9.99994084
6.24001778
6.29988053
-9.99879095
9.95525417
-1.12053152
-9.99988538
-3.40429302
-9.99990673
-7.92139624
1.24471039
-7.04714356
-8.33614732
-1.79503825
-5.14745579
-2.12600877
4.84316599
1.50403723
-9.98858084
8.84675547
-9.41692707
-2.18805006
-9.96580729
9.95400609
-5.84512017
-8.48320196
1.40549035
-2.43134839
-9.22940478
-2.13131721
-8.40254842
1.02857647
-9.99996907
4.05695863
-5.76183693
-2.05721785
-1.15300112
-7.31796379
-10.00000000
-2.85882130
-10.00000000
2.65206369
-1.90248341
2.63761613
0.09587580
-2.21494455
-1.97683623
2.21247279
-1.98400348
-2.04397197
-2.69413477
-2.08899120
-4.20034250
9.99998145
-4.39004009
-6.17332163
-4.44224962
0.50283483
-3.21453473
-4.07510382
-7.75542552
-4.15993792
-10.00000000
8.76125155
-10.00000000
-1.75420681
-2.73255873
-10.00000000
-10.00000000
-1.09451332
-10.00000000
2.59752601
-1.79490190
-1.38503021
-0.13221297
0.05944100
1.73972618
2.00133780
-1.95369453
0.94369750
-2.07636507
-1.28900239
9.99166150
-9.99997416
9.99979636
9.99824293
-9.99984883
-9.98945479
5.88410789
-3.11570363
5.67728903
-2.74860437
-9.99997672
3.30691882
0.84275713
3.44365338
-10.00000000
0.35121083
4.71766763
-10.00000000
-1.46445967
-10.00000000
-9.89673799
-5.79755390
-10.00000000
-0.06598912
-3.24645987
-2.38215205
-10.00000000
-0.07199004
-9.81219972
4.79545107
-10.00000000
9.97244611
-7.07088431
-1.72707299
-7.88150484
-1.37159485
-10.00000000
-1.12506821
-5.09913178
4.68522219
9.59491209
-1.95914254
1.34790394
-0.21641601
-10.00000000
-4.13641356
-9.99999168
0.38662605
-0.57972529
-9.97412572
-10.00000000
0.79019100
-3.91881088
-5.83913588
-0.72711485
-2.84218440
-10.00000000
0.02705400
-10.00000000
-2.05193854
-10.00000000
-1.01406319
0.37382948
-0.48930341
9.99979187
-7.78958772
-9.09138989
-10.00000000
-10.00000000
-6.64989910
-8.54681180
0.79824218
8.24552635
-0.81223884
-9.99999993
2.38706045
-9.19024161
2.46129889
-10.00000000
-9.99318989
-6.79899130
-4.61393724
-2.43856599
-1.25432938
2.14674964
3.15483218
-3.45462454
-3.48015228
2.47747122
-0.24942862
-9.99998843
-10.00000000
1.86312934
-8.41735655
-1.35208130
-5.98442621
3.03516986
1.09880063
-0.86264712
3.66507403
9.99430419
-9.99993045
-2.49868823
-5.10574998
0.38365782
9.99926350
2.25169691
-7.08111099
0.82720849
-2.39010693
9.99421374
-9.99992946
-2.49304428
-5.02822824
0.34062793
9.99911113
2.25592962
-7.06866645
0.74176616
-2.35908282
-8.04147979
-10.00000000
0.65445255
-10.00000000
4.18771329
-1.27523641
2.11594519
-9.99996845
-3.51915625
-0.39257664
5.24939426
-10.00000000
-10.00000000
-9.99990066
-0.86021878
1.13433348
-10.00000000
-3.09777435
-3.24560083
4.14513096
2.56645177
-9.99928524
4.10467780
3.29837916
-10.00000000
0.44391681
-10.00000000
-1.09188582
-9.99981610
-9.99140269
-7.62215749
-4.99008243
-2.87660924
-0.45287092
2.08017655
2.50571510
-3.19044171
-3.75012239
2.17017953
-0.15322836
-8.09692377
-7.67762953
-9.98524045
-8.36391653
6.71849243
-8.64219836
-9.99886227
9.97497428
8.32476169
9.99973691
-8.60803533
-10.00000000
-9.99997938
-9.99581532
-2.62425986
-0.95830799
-10.00000000
9.99991197
-9.99270631
-9.75541832
9.99769690
-9.99999284
9.99984195
9.99912294
-8.73070614
-8.81854712
-9.99864142
4.80516435
-9.96572246
-1.68113097
-3.72270495
9.92523260
-2.68945454
-5.61478278
-4.14524734
0.50576277
-2.86632867
-4.36884748
-7.12385328
-3.91014973
9.99776479
-3.71323783
-2.65347554
-6.10051794
-4.54734754
-4.34314886
-9.99999424
9.99996323
3.56718803
-0.19364434
-9.99993130
-9.63589159
-8.07240758
-5.53736989
5.45046445
-10.00000000
-10.00000000
5.64231497
-8.37940448
-7.52169518
-10.00000000
2.84534625
-2.11135685
-1.53182812
-9.99994389
-3.75920112
-6.76976353
4.78281719
-9.99943553
-7.31921931
-1.99163335
-7.55625724
-5.40450671
-1.06708850
-7.34647705
1.60996123
9.99980207
-9.99984423
1.69344947
-5.65192177
9.98760327
9.55946506
-0.44341965
3.30120201
-9.99998061
-1.03031212
-9.74529367
-9.99991713
-4.43437124
-9.99994453
-5.72276607
-8.23139602
-4.30676645
-1.01749817
-10.00000000
-0.35756553
9.99969653
-10.00000000
2.29913275
-10.00000000
-10.00000000
2.22578234
-0.97712974
0.86379660
0.19722093
-5.18009169
-10.00000000
1.19582664
-10.00000000
1.59458102
9.98882198
5.48312653
-1.71346740
-1.62274008
-10.00000000
-1.65823238
-9.99998422
4.58975862
0.77248977
-9.99996893
2.55364703
-8.15048432
-0.21700807
-4.33962766
-10.00000000
4.46728179
-9.99996334
-9.99998811
-10.00000000
-10.00000000
-6.94265087
-10.00000000
-4.70632516
-2.02128242
-6.26362696
2.66071725
-10.00000000
8.15955229
-9.99780316
-5.52477686
-9.98209949
-10.00000000
-10.00000000
-2.81251310
1.71083785
1.30780404
-10.00000000
-0.02031073
-5.22273589
-2.46797610
-10.00000000
4.16280543
9.95198889
2.18451002
-9.14803118
-6.19291003
-9.87158067
7.11785461
0.98747886
-5.86889561
-10.00000000
1.93223214
0.42547750
-0.24396257
-0.00519535
-3.38127582
-10.00000000
2.18419891
-10.00000000
1.90303350
-1.23386513
-9.99997853
5.25536655
-10.00000000
5.40808479
-3.80751200
3.40332048
-3.24183691
-10.00000000
-1.79868125
9.82124964
-10.00000000
-8.44736759
3.45448421
-9.99997204
6.55065568
4.18725029
-10.00000000
-8.75219961
-10.00000000
-9.99996966
-0.51022088
-9.99283540
0.23313020
-10.00000000
-4.89577322
-9.99999192
-3.13421529
3.68266293
4.88796405
-10.00000000
0.58316699
7.48551934
-9.60531868
-8.64807967
5.08455783
-9.99984079
-1.31412073
-9.36606574
-8.48565285
-7.66107906
-5.00855800
-2.90803081
-0.43517183
2.06937347
2.49572907
-3.21267230
-3.76552828
2.15433571
-0.15995388
-10.00000000
9.99611429
-4.06663593
2.84168961
-10.00000000
1.01730435
0.34451955
-10.00000000
-2.30330976
-10.00000000
-9.95587025
-6.42420322
2.53075512
-5.12430866
-9.99997074
1.58844283
8.83782818
-10.00000000
-3.78483716
-10.00000000
-5.04687298
-3.78502478
-10.00000000
0.30293810
-9.65109573
7.07605233
-9.90047302
3.61226145
-9.25894286
1.40710705
9.99997683
-6.95822860
-9.98393503
-10.00000000
-9.13123985
-4.69706109
4.57035412
1.63931127
-3.96291895
1.25132232
-9.98579678
9.73402727
-0.52243855
-0.47091502
-0.22839537
-9.99998591
-0.92582193
-9.99985101
-5.60300591
3.01407735
1.74689711
1.04817542
3.99154887
5.05646171
-10.00000000
3.17561962
-9.56473964
-10.00000000
-9.96328853
-10.00000000
-1.97842390
2.98714662
-0.03749626
-2.35716238
-2.06788298
2.19103640
-2.06432818
-2.14287897
-2.86693000
-2.18833785
2.09788081
-10.00000000
-8.05297460
-0.68757660
-9.99995646
2.41404108
-10.00000000
7.44367344
3.51462351
7.61239526
1.00760421
-10.00000000
2.78546643
-10.00000000
8.37270027
-2.57604818
-3.55640459
6.96879267
-10.00000000
-3.34514125
-9.99648132
-6.13875770
-0.88780884
-4.13406004
0.07788410
-6.46528208
1.65780961
7.21148015
-9.99989886
-6.59273301
-7.21112127
-9.99998647
0.72625152
-10.00000000
0.42230028
-0.30532225
3.60196531
-9.96820979
-4.02864670
0.94067842
1.52976552
-9.99282955
-0.26292726
6.29153170
-5.01849406
-0.36729450
2.96144126
6.49850886
-10.00000000
-9.99997121
9.99996869
-8.85791551
-9.98381977
-10.00000000
-9.87517029
-9.95868425
9.99993626
7.15747194
-8.71353374
-0.84112275
-5.98075530
-10.00000000
-1.73273506
-9.99999703
4.27687696
0.73736367
4.78598587
-0.03896239
2.66816609
-1.33645726
-9.99998278
-10.00000000
4.73718581
-7.08491868
-3.08210480
-5.35032520
4.58602606
4.30899682
-0.33419332
0.38529743
-6.32270632
-9.98104345
-8.95061408
4.24808128
3.54103706
3.20791786
-9.97311221
9.99996585
-4.34730773
-1.59561884
-0.97371497
-10.00000000
0.56988821
-10.00000000
2.86530954
-2.09608589
5.76088199
-1.37008068
-1.06196109
-1.15939780
-10.00000000
9.98530089
0.33815801
-5.64174930
-6.99171675
-6.75404294
3.17591988
-5.46753458
-9.92564890
-2.91609333
-9.99999999
8.19423702
-9.99721368
-2.27735872
6.77069691
1.89576304
-10.00000000
-7.40452582
-7.40621413
2.20211300
9.99988336
-10.00000000
-3.52136070
-9.99932614
-0.30057293
5.63468399
2.78068747
-8.90885828
-0.01393920
-3.65569522
-9.80895381
-9.99388598
-1.95423419
9.99984515
-10.00000000
-3.77487852
-10.00000000
5.22605859
-9.99290247
-9.97464488
-10.00000000
-5.00914998
4.39490175
-2.48157258
-9.99999990
0.74228906
-10.00000000
9.57664791
-10.00000000
-9.99783264
-10.00000000
-0.89055973
-10.00000000
-6.10626795
4.83095662
-3.85621826
-10.00000000
-8.09833503
-10.00000000
1.08523526
-5.48980399
-10.00000000
-6.47565849
-6.54271745
-3.43148012
9.99980665
-9.81873874
-6.55206349
-4.50727810
1.64777343
-10.00000000
-9.99999995
2.37169578
-9.99974280
4.44509899
6.85502644
-10.00000000
-10.00000000
-3.27406701
-1.47743859
-10.00000000
1.74844477
-10.00000000
2.79549213
-1.36103636
2.53991718
-9.99995952
-1.67437359
-4.96059562
5.72271743
-9.99994705
-4.76827448
8.71011555
-9.99992010
-9.99996602
1.34553986
5.91754122
-10.00000000
-0.14314179
-10.00000000
-7.69460486
2.56809359
-10.00000000
7.28911673
-0.18024688
-3.40843544
-10.00000000
3.05948988
-6.27909265
4.78327580
-2.89260994
-6.39116680
6.90509432
3.84927555
-10.00000000
3.33430030
-9.99996614
-10.00000000
-5.31986277
-10.00000000
-9.99997841
9.99996165
-9.64907867
9.32221128
-8.96280597
-2.23061126
-10.00000000
-3.11975953
-3.07246402
-2.34458098
-9.44623625
1.72634989
-1.39381566
-8.19673523
-9.77185528
-0.71218473
-4.54620038
3.65539138
-7.02408158
-8.81102625
-10.00000000
3.80435699
-2.86230145
-3.73748243
-9.94622865
-5.15263502
-5.10427133
3.68065778
-9.44430811
-6.72189804
-1.83907586
-1.54469680
0.99407533
-1.56612291
-0.53750672
0.10617497
-1.67848832
2.55848523
-1.92880435
-2.62804706
9.99997799
-10.00000000
-10.00000000
-10.00000000
-2.13752321
-3.41594589
-9.99999405
-3.16807363
-2.35564796
1.31151701
-8.70240806
-2.09723542
-3.32203248
-0.42587338
-10.00000000
2.45310367
-3.21531556
-10.00000000
2.04899602
-10.00000000
-9.64876968
-1.40241995
-9.97224306
-7.23938768
-5.94839026
-10.00000000
-9.99999999
3.78481753
-9.99995071
2.31838784
-10.00000000
1.70075645
-2.36592005
2.26761422
-0.81038632
-6.06353645
-10.00000000
2.30787900
-10.00000000
-0.03095682
9.99989446
3.49497688
6.31048092
-3.20189412
-10.00000000
0.30682585
-9.99998223
7.91058112
-1.89245334
-2.39369137
9.75965493
-7.52454042
7.84271486
0.42257101
-9.99999235
-9.98799033
9.99928735
-10.00000000
-4.01746210
-10.00000000
9.76951103
-9.99994046
5.18086707
9.99903857
-5.65317650
-9.95766466
3.40537178
-9.54738515
-9.99996780
-2.99988958
-9.98663442
-9.99996020
9.99955124
-9.98844948
3.14055947
-9.97591812
-8.75165018
4.59221081
-3.83965855
-6.31591694
-7.01518148
-4.67593423
-2.53066838
-1.01743692
2.23483793
2.83863075
-3.19736835
-3.58762345
2.36491311
-0.17373832
-1.50889154
-10.00000000
-7.53686344
-1.29256889
-0.64756042
4.96593937
-9.99928925
9.26941731
-9.99913399
4.21774340
-6.53421197
-4.67220653
-2.36842711
-1.84833391
2.02458106
3.80969478
-4.41990840
-3.57595599
2.77913437
-0.34655444
-10.00000000
9.97612814
4.50074574
-3.53718732
-10.00000000
-2.94370492
-2.37497602
-10.00000000
-9.96893802
-10.00000000
0.03150725
8.43584998
-0.08930368
-9.67603285
-10.00000000
7.23083708
-9.99762779
7.34279865
-3.26917443
-8.36868106
-10.00000000
1.59605514
-1.98435309
1.75442099
-0.80609498
-5.81741189
-10.00000000
2.32836879
-10.00000000
0.09263119
-6.53386530
-4.67163978
-2.37229563
-1.84542508
2.02147827
3.80677238
-4.40685379
-3.57495346
2.77742342
-0.34818481
-9.99971369
9.94522230
-7.14750731
0.02732680
-10.00000000
-5.09835319
9.99633113
-10.00000000
-5.23149785
-10.00000000
-6.54600934
-4.66935508
-2.36629813
-1.68339605
2.00455697
3.69821178
-4.15205576
-3.55302315
2.69361018
-0.34614375
-7.92710959
-5.86138804
-8.65939205
-4.45528230
5.21955355
-0.76103983
-10.00000000
4.76104664
-10.00000000
-10.00000000
-10.00000000
9.97590893
5.03011627
-9.42361055
-10.00000000
-2.18671540
-0.55343077
-10.00000000
0.10071100
-10.00000000
-9.99997614
9.98153292
0.76200957
-5.68769898
-10.00000000
-2.96162767
-2.68734270
-10.00000000
4.04038042
-10.00000000
-1.58433301
-7.33949992
-7.14418300
-1.15300838
-7.48108491
3.11015717
9.99989944
-9.99879416
1.82696765
-5.69783769
-9.99998871
9.99998999
-9.99704275
8.21263751
-7.29349234
-0.10454779
-5.66599646
-9.99999409
2.55643895
-2.04412669
9.98849986
-10.00000000
9.05309378
1.41312815
-4.30783569
-9.99593383
-9.98056257
-4.00463140
-5.84123415
-0.20907464
-9.99940270
-9.99997131
-3.93569754
-10.00000000
-0.45999776
-4.87693729
2.92906344
-0.55439500
-10.00000000
0.12571411
-9.99812118
9.96427973
-2.50969307
4.90188066
-9.99988399
-9.91915074
9.97654824
-8.12354932
9.72164186
0.78075731
-8.58082789
-9.52001054
-7.97538800
-2.47576049
1.44505364
7.75780595
-9.81747606
9.99235071
-7.02407636
0.88415415
-10.00000000
2.23770008
-4.96906337
0.07529703
-1.62367587
-6.36128757
-10.00000000
0.56894091
-10.00000000
0.17335907
-7.67651133
-5.01442431
-2.92718974
-0.42838148
2.06744294
2.48914169
-3.21491947
-3.76721932
2.15040622
-0.16275041
-1.27982029
-1.27190832
0.37532695
0.56269839
1.19226924
1.71708912
-1.48129983
1.28020282
-1.62913654
-1.80919244
-10.00000000
1.03361145
7.51764215
4.03771284
5.86541718
-1.70263430
-3.67378795
-9.99604972
-9.99025881
-7.29775326
-9.98673982
-9.99984208
0.84137969
-7.47219979
6.42330114
-8.10331864
-3.45253352
-4.94078606
-6.08732038
4.73042863
-10.00000000
6.57369802
5.08339929
-1.06074937
-3.24300295
2.82621922
3.11216955
-2.30431322
-1.02081239
-2.56773184
